{"model_type": "xgboost", "opt_type": 1, "learner": {"attributes": {}, "feature_names": [], "feature_types": [], "gradient_booster": {"model": {"gbtree_model_param": {"num_parallel_tree": "1", "num_trees": "100"}, "iteration_indptr": [0, 1, 2, 3, 4, 5, 6, 7, 8, 9, 10, 11, 12, 13, 14, 15, 16, 17, 18, 19, 20, 21, 22, 23, 24, 25, 26, 27, 28, 29, 30, 31, 32, 33, 34, 35, 36, 37, 38, 39, 40, 41, 42, 43, 44, 45, 46, 47, 48, 49, 50, 51, 52, 53, 54, 55, 56, 57, 58, 59, 60, 61, 62, 63, 64, 65, 66, 67, 68, 69, 70, 71, 72, 73, 74, 75, 76, 77, 78, 79, 80, 81, 82, 83, 84, 85, 86, 87, 88, 89, 90, 91, 92, 93, 94, 95, 96, 97, 98, 99, 100], "tree_info": [0, 0, 0, 0, 0, 0, 0, 0, 0, 0, 0, 0, 0, 0, 0, 0, 0, 0, 0, 0, 0, 0, 0, 0, 0, 0, 0, 0, 0, 0, 0, 0, 0, 0, 0, 0, 0, 0, 0, 0, 0, 0, 0, 0, 0, 0, 0, 0, 0, 0, 0, 0, 0, 0, 0, 0, 0, 0, 0, 0, 0, 0, 0, 0, 0, 0, 0, 0, 0, 0, 0, 0, 0, 0, 0, 0, 0, 0, 0, 0, 0, 0, 0, 0, 0, 0, 0, 0, 0, 0, 0, 0, 0, 0, 0, 0, 0, 0, 0, 0], "trees": [{"base_weights": [-0.24635372, -0.8545969, 0.8775475, -0.8970914, 0.48965687, 0.4860305, 1.6795417, -1.0073055, -0.50266176, 0.64903086, -0.8114242, 2.4830818, 1.0144384, -1.0562843, -0.15666203, -0.03707348, -0.7955577, -0.53233576, 0.8441443, -0.06538485, -0.2804499, 0.25362256, 2.7367692, 0.4506403, 1.3523217, -0.3197254, -0.087806605, -0.7205768, 0.25362256, 0.6065936, -0.5902277, -0.43773016, -0.88830066, -0.76094985, 0.0410594, 0.98892426, -0.18503608, 0.9443362, 0.25362256, -0.15261388, 1.0573967, 1.9140396, 0.07284363, -0.06538485, -0.25288126, 0.3739113, 0.016316224, -0.24782392, 0.07337558, -0.20195694, 0.0410594, -0.14636931, -0.32405442, -0.06538485, -0.26556084, 0.1779474, 0.4548836, 0.43965527, 0.0410594, 0.7272191, 0.07337558], "categories": [], "categories_nodes": [], "categories_segments": [], "categories_sizes": [], "default_left": [0, 0, 0, 0, 0, 0, 0, 0, 0, 0, 0, 0, 0, 0, 0, 0, 0, 0, 0, 0, 0, 0, 0, 0, 0, 0, 0, 0, 0, 0, 0, 0, 0, 0, 0, 0, 0, 0, 0, 0, 0, 0, 0, 0, 0, 0, 0, 0, 0, 0, 0, 0, 0, 0, 0, 0, 0, 0, 0, 0, 0], "id": 0, "left_children": [1, 3, 5, 7, -1, 9, 11, 13, 15, 17, 19, 21, 23, 25, 27, 29, 31, 33, 35, -1, -1, -1, 37, 39, 41, -1, -1, 43, -1, 45, 47, 49, 51, 53, -1, 55, -1, -1, -1, -1, 57, 59, -1, -1, -1, -1, -1, -1, -1, -1, -1, -1, -1, -1, -1, -1, -1, -1, -1, -1, -1], "loss_changes": [113.55025, 12.831856, 17.53226, 4.1194916, 0.0, 9.128603, 7.5081787, 3.258171, 3.4119096, 8.906426, 0.16128182, 0.9293709, 1.6681824, 0.24850464, 3.8007665, 4.2012005, 0.12362099, 0.9936228, 7.3521614, 0.0, 0.0, 0.0, 2.2456741, 4.018831, 3.8829088, 0.0, 0.0, 0.071760654, 0.0, 1.868943, 1.4448307, 0.788899, 0.3405428, 0.10973811, 0.0, 5.233732, 0.0, 0.0, 0.0, 0.0, 1.297667, 3.2267685, 0.0, 0.0, 0.0, 0.0, 0.0, 0.0, 0.0, 0.0, 0.0, 0.0, 0.0, 0.0, 0.0, 0.0, 0.0, 0.0, 0.0, 0.0, 0.0], "parents": [2147483647, 0, 0, 1, 1, 2, 2, 3, 3, 5, 5, 6, 6, 7, 7, 8, 8, 9, 9, 10, 10, 11, 11, 12, 12, 13, 13, 14, 14, 15, 15, 16, 16, 17, 17, 18, 18, 22, 22, 23, 23, 24, 24, 27, 27, 29, 29, 30, 30, 31, 31, 32, 32, 33, 33, 35, 35, 40, 40, 41, 41], "right_children": [2, 4, 6, 8, -1, 10, 12, 14, 16, 18, 20, 22, 24, 26, 28, 30, 32, 34, 36, -1, -1, -1, 38, 40, 42, -1, -1, 44, -1, 46, 48, 50, 52, 54, -1, 56, -1, -1, -1, -1, 58, 60, -1, -1, -1, -1, -1, -1, -1, -1, -1, -1, -1, -1, -1, -1, -1, -1, -1, -1, -1], "split_conditions": [205.0, 750.0, 689.0, 110.0, 0.48965687, 343037.0, 259152.0, 133.0, 267557.0, 191255.0, 239.0, 9045.0, 1429.0, 369648.0, 88.0, 106.0, 125.0, 751.0, 618.0, -0.06538485, -0.2804499, 0.25362256, 1885.0, 293903.0, 2090.0, -0.3197254, -0.087806605, 172.0, 0.25362256, 123.0, 254585.0, 318814.0, 307390.0, 9045.0, 0.0410594, 507.0, -0.18503608, 0.9443362, 0.25362256, -0.15261388, 310674.0, 318016.0, 0.07284363, -0.06538485, -0.25288126, 0.3739113, 0.016316224, -0.24782392, 0.07337558, -0.20195694, 0.0410594, -0.14636931, -0.32405442, -0.06538485, -0.26556084, 0.1779474, 0.4548836, 0.43965527, 0.0410594, 0.7272191, 0.07337558], "split_indices": [2, 1, 1, 2, 0, 0, 0, 1, 0, 0, 2, 0, 2, 0, 2, 1, 2, 2, 1, 0, 0, 0, 2, 0, 2, 0, 0, 1, 0, 2, 0, 0, 0, 0, 0, 2, 0, 0, 0, 0, 0, 0, 0, 0, 0, 0, 0, 0, 0, 0, 0, 0, 0, 0, 0, 0, 0, 0, 0, 0, 0], "split_type": [0, 0, 0, 0, 0, 0, 0, 0, 0, 0, 0, 0, 0, 0, 0, 0, 0, 0, 0, 0, 0, 0, 0, 0, 0, 0, 0, 0, 0, 0, 0, 0, 0, 0, 0, 0, 0, 0, 0, 0, 0, 0, 0, 0, 0, 0, 0, 0, 0, 0, 0, 0, 0, 0, 0, 0, 0, 0, 0, 0, 0], "sum_hessian": [164.00795, 106.57197, 57.43598, 105.409966, 1.1619997, 39.67399, 17.761995, 81.17397, 24.235992, 35.689987, 3.9839988, 6.805998, 10.9559965, 76.52598, 4.647999, 9.793997, 14.441996, 4.8139987, 30.87599, 1.1619997, 2.821999, 1.4939995, 5.3119984, 4.9799986, 5.975998, 75.197975, 1.3279996, 3.153999, 1.4939995, 4.4819984, 5.3119984, 4.1499987, 10.291997, 3.4859989, 1.3279996, 28.385992, 2.4899993, 3.817999, 1.4939995, 1.9919994, 2.987999, 3.4859989, 2.4899993, 1.1619997, 1.9919994, 1.4939995, 2.987999, 4.1499987, 1.1619997, 2.821999, 1.3279996, 4.4819984, 5.809998, 1.1619997, 2.3239994, 17.429995, 10.9559965, 1.6599995, 1.3279996, 2.3239994, 1.1619997], "tree_param": {"num_deleted": "0", "num_feature": "5", "num_nodes": "61", "size_leaf_vector": "1"}}, {"base_weights": [-0.2012256, -0.74611926, 0.5387858, -0.7811819, 0.28900534, 0.26499745, 1.0695245, -0.88883567, -0.41058958, 0.3642426, -0.72252333, 1.1354002, -0.046411175, -0.94026625, -0.13554396, -0.12344746, -0.7727497, -0.4384646, 0.4946795, -0.2569505, -0.052147493, 0.42305735, 0.8239527, -0.28504428, -0.07534625, -0.64162326, 0.18830143, 0.20761253, -0.5432047, -0.27047902, -0.30309516, -0.2424762, -0.09680656, 0.5322629, 0.36882395, -0.020929419, 0.9618212, -0.23289041, -0.045314196, -0.06463635, 0.26543632, -0.25985056, -0.028822219, -0.16343224, 0.079825915, 0.08143041, -0.13220061, -0.1521203, 0.14248197, 0.33999467, 0.07756062], "categories": [], "categories_nodes": [], "categories_segments": [], "categories_sizes": [], "default_left": [0, 0, 0, 0, 0, 0, 0, 0, 0, 0, 0, 0, 0, 0, 0, 0, 0, 0, 0, 0, 0, 0, 0, 0, 0, 0, 0, 0, 0, 0, 0, 0, 0, 0, 0, 0, 0, 0, 0, 0, 0, 0, 0, 0, 0, 0, 0, 0, 0, 0, 0], "id": 1, "left_children": [1, 3, 5, 7, -1, 9, 11, 13, 15, 17, 19, 21, -1, 23, 25, 27, 29, 31, 33, -1, -1, -1, 35, -1, -1, 37, -1, 39, 41, 43, -1, -1, 45, -1, 47, -1, 49, -1, -1, -1, -1, -1, -1, -1, -1, -1, -1, -1, -1, -1, -1], "loss_changes": [63.4655, 6.1765327, 9.438456, 3.1947823, 0.0, 4.719099, 1.9852695, 2.5179672, 2.186531, 4.612149, 0.18098545, 0.6706543, 0.0, 0.19546509, 2.5396197, 1.9789973, 0.86196375, 0.73008263, 5.236396, 0.0, 0.0, 0.0, 1.6002111, 0.0, 0.0, 0.1352017, 0.0, 2.5488634, 0.8118187, 0.79556715, 0.0, 0.0, 0.68455124, 0.0, 3.4536943, 0.0, 1.0152788, 0.0, 0.0, 0.0, 0.0, 0.0, 0.0, 0.0, 0.0, 0.0, 0.0, 0.0, 0.0, 0.0, 0.0], "parents": [2147483647, 0, 0, 1, 1, 2, 2, 3, 3, 5, 5, 6, 6, 7, 7, 8, 8, 9, 9, 10, 10, 11, 11, 13, 13, 14, 14, 15, 15, 16, 16, 17, 17, 18, 18, 22, 22, 25, 25, 27, 27, 28, 28, 29, 29, 32, 32, 34, 34, 36, 36], "right_children": [2, 4, 6, 8, -1, 10, 12, 14, 16, 18, 20, 22, -1, 24, 26, 28, 30, 32, 34, -1, -1, -1, 36, -1, -1, 38, -1, 40, 42, 44, -1, -1, 46, -1, 48, -1, 50, -1, -1, -1, -1, -1, -1, -1, -1, -1, -1, -1, -1, -1, -1], "split_conditions": [194.0, 750.0, 689.0, 110.0, 0.28900534, 343037.0, 346449.0, 133.0, 293248.0, 193366.0, 338.0, 259152.0, -0.046411175, 369648.0, 88.0, 106.0, 56.0, 245.0, 107.0, -0.2569505, -0.052147493, 0.42305735, 269108.0, -0.28504428, -0.07534625, 72.0, 0.18830143, 76.0, 137.0, 44.0, -0.30309516, -0.2424762, 456.0, 0.5322629, 245.0, -0.020929419, 2090.0, -0.23289041, -0.045314196, -0.06463635, 0.26543632, -0.25985056, -0.028822219, -0.16343224, 0.079825915, 0.08143041, -0.13220061, -0.1521203, 0.14248197, 0.33999467, 0.07756062], "split_indices": [2, 1, 1, 2, 0, 0, 0, 1, 0, 0, 1, 0, 0, 0, 2, 1, 1, 1, 1, 0, 0, 0, 0, 0, 0, 2, 0, 1, 2, 1, 0, 0, 1, 0, 2, 0, 2, 0, 0, 0, 0, 0, 0, 0, 0, 0, 0, 0, 0, 0, 0], "split_type": [0, 0, 0, 0, 0, 0, 0, 0, 0, 0, 0, 0, 0, 0, 0, 0, 0, 0, 0, 0, 0, 0, 0, 0, 0, 0, 0, 0, 0, 0, 0, 0, 0, 0, 0, 0, 0, 0, 0, 0, 0, 0, 0, 0, 0, 0, 0, 0, 0, 0, 0], "sum_hessian": [155.39682, 89.492455, 65.904366, 88.2259, 1.2665582, 44.46554, 21.43882, 67.28251, 20.943392, 40.978397, 3.487146, 20.412958, 1.0258614, 62.75007, 4.53244, 12.429449, 8.513942, 5.3979526, 35.580444, 2.3519008, 1.1352451, 8.970448, 11.442511, 61.489555, 1.260512, 2.8211102, 1.7113299, 7.231448, 5.198001, 3.4205885, 5.0933533, 1.936416, 3.4615364, 2.013428, 33.567017, 1.595278, 9.847233, 1.7564757, 1.0646346, 4.870453, 2.3609953, 2.4739144, 2.7240865, 2.25336, 1.1672285, 1.7732238, 1.6883126, 3.21896, 30.348057, 7.4251676, 2.4220653], "tree_param": {"num_deleted": "0", "num_feature": "5", "num_nodes": "51", "size_leaf_vector": "1"}}, {"base_weights": [-0.1682559, -0.6418224, 0.35783076, -0.7811969, -0.21207842, 0.41756278, -0.67662275, -0.8701084, -0.36143708, -0.32221308, 0.22535022, 0.22438113, 0.7626861, -0.039009925, -0.24600832, -0.2720704, -0.45442718, 0.22555111, -0.5985999, 0.3405139, -0.52858907, 0.5548521, -0.008439604, 0.9299246, 0.49931487, 0.04306455, -0.68182224, -0.07029821, 0.2481507, 0.10363289, -0.23349474, 0.757279, -0.18199807, 0.09195088, -0.6159449, 0.09492433, 0.500317, -0.39721248, 0.2790836, 0.08984704, 1.0168669, 0.017259508, 0.75522447, -0.24828428, -0.028067805, 0.31772298, 0.026343765, -0.28928936, -0.09796501, 0.117229596, -0.28486714, 0.063576885, -0.296486, 0.13613187, -0.16686451, 0.38702992, 0.20689796, -0.142461, 0.2130394, 0.30531216, -0.086645186], "categories": [], "categories_nodes": [], "categories_segments": [], "categories_sizes": [], "default_left": [0, 0, 0, 0, 0, 0, 0, 0, 0, 0, 0, 0, 0, 0, 0, 0, 0, 0, 0, 0, 0, 0, 0, 0, 0, 0, 0, 0, 0, 0, 0, 0, 0, 0, 0, 0, 0, 0, 0, 0, 0, 0, 0, 0, 0, 0, 0, 0, 0, 0, 0, 0, 0, 0, 0, 0, 0, 0, 0, 0, 0], "id": 2, "left_children": [1, 3, 5, 7, 9, 11, 13, 15, 17, 19, -1, 21, 23, -1, -1, -1, 25, 27, 29, 31, 33, 35, 37, 39, 41, -1, 43, -1, -1, -1, -1, 45, -1, -1, 47, 49, -1, 51, 53, -1, 55, 57, 59, -1, -1, -1, -1, -1, -1, -1, -1, -1, -1, -1, -1, -1, -1, -1, -1, -1, -1], "loss_changes": [36.85077, 4.489109, 4.6249247, 1.8617401, 2.4067087, 4.299762, 0.22399533, 0.3129425, 1.7920163, 2.7801332, 0.0, 3.4216154, 0.57729244, 0.0, 0.0, 0.0, 0.8945987, 1.3424364, 1.7535892, 2.4815166, 1.2749004, 9.244522, 3.1333568, 0.4246931, 1.3863988, 0.0, 0.30155373, 0.0, 0.0, 0.0, 0.0, 0.71558905, 0.0, 0.0, 1.0773926, 4.715268, 0.0, 4.496961, 2.6062112, 0.0, 0.11825371, 2.0275576, 2.318234, 0.0, 0.0, 0.0, 0.0, 0.0, 0.0, 0.0, 0.0, 0.0, 0.0, 0.0, 0.0, 0.0, 0.0, 0.0, 0.0, 0.0, 0.0], "parents": [2147483647, 0, 0, 1, 1, 2, 2, 3, 3, 4, 4, 5, 5, 6, 6, 7, 7, 8, 8, 9, 9, 11, 11, 12, 12, 16, 16, 17, 17, 18, 18, 19, 19, 20, 20, 21, 21, 22, 22, 23, 23, 24, 24, 26, 26, 31, 31, 34, 34, 35, 35, 37, 37, 38, 38, 40, 40, 41, 41, 42, 42], "right_children": [2, 4, 6, 8, 10, 12, 14, 16, 18, 20, -1, 22, 24, -1, -1, -1, 26, 28, 30, 32, 34, 36, 38, 40, 42, -1, 44, -1, -1, -1, -1, 46, -1, -1, 48, 50, -1, 52, 54, -1, 56, 58, 60, -1, -1, -1, -1, -1, -1, -1, -1, -1, -1, -1, -1, -1, -1, -1, -1, -1, -1], "split_conditions": [194.0, 76.0, 347774.0, 102.0, 750.0, 689.0, 267.0, 358117.0, 267557.0, 98.0, 0.22535022, 299.0, 280782.0, -0.039009925, -0.24600832, -0.2720704, 361937.0, 263624.0, 19.0, 282372.0, 5660.0, 419.0, 537.0, 9045.0, 305711.0, 0.04306455, 76.0, -0.07029821, 0.2481507, 0.10363289, -0.23349474, 130.0, -0.18199807, 0.09195088, 133.0, 355.0, 0.500317, 419.0, 618.0, 0.08984704, 1251.0, 1429.0, 2500.0, -0.24828428, -0.028067805, 0.31772298, 0.026343765, -0.28928936, -0.09796501, 0.117229596, -0.28486714, 0.063576885, -0.296486, 0.13613187, -0.16686451, 0.38702992, 0.20689796, -0.142461, 0.2130394, 0.30531216, -0.086645186], "split_indices": [2, 1, 0, 2, 1, 1, 2, 0, 0, 1, 0, 1, 0, 0, 0, 0, 0, 0, 1, 0, 0, 2, 2, 0, 0, 0, 2, 0, 0, 0, 0, 2, 0, 0, 1, 2, 0, 2, 1, 0, 2, 2, 2, 0, 0, 0, 0, 0, 0, 0, 0, 0, 0, 0, 0, 0, 0, 0, 0, 0, 0], "split_type": [0, 0, 0, 0, 0, 0, 0, 0, 0, 0, 0, 0, 0, 0, 0, 0, 0, 0, 0, 0, 0, 0, 0, 0, 0, 0, 0, 0, 0, 0, 0, 0, 0, 0, 0, 0, 0, 0, 0, 0, 0, 0, 0, 0, 0, 0, 0, 0, 0, 0, 0, 0, 0, 0, 0, 0, 0, 0, 0, 0, 0], "sum_hessian": [145.99184, 76.715225, 69.27661, 57.310482, 19.404743, 66.05856, 3.2180483, 46.407745, 10.90274, 18.01092, 1.393823, 43.410065, 22.648497, 1.065113, 2.1529355, 41.548473, 4.8592696, 3.1515293, 7.75121, 4.122507, 13.888412, 17.370628, 26.039434, 12.304431, 10.344067, 1.4403471, 3.4189227, 2.1321855, 1.0193439, 1.092128, 6.6590824, 3.0020602, 1.1204472, 1.0776615, 12.810751, 13.058927, 4.311702, 10.908318, 15.131118, 2.0299058, 10.274526, 3.9572544, 6.386812, 2.4138165, 1.0051062, 1.668103, 1.3339572, 4.754956, 8.055795, 10.664242, 2.3946848, 5.6879864, 5.2203317, 12.891766, 2.2393515, 3.9954123, 6.279113, 2.4977794, 1.459475, 5.123849, 1.2629633], "tree_param": {"num_deleted": "0", "num_feature": "5", "num_nodes": "61", "size_leaf_vector": "1"}}, {"base_weights": [-0.13847086, -0.6195982, 0.2065786, -0.84664655, -0.4724896, -0.017156655, 0.4934757, -0.28233424, -0.2538527, 0.054868504, -0.5030664, 0.34774917, -0.07338814, 0.43067324, 0.37285116, 0.09770954, -0.21642487, -0.64247483, -0.28788492, -0.5825134, 0.06978212, -0.1581914, 0.4374668, -0.38429406, -0.27197385, -0.27397949, -0.10344038, -0.21844839, 0.08581167, 0.26225495, -0.39540014, 0.24201326, 0.6814957, -0.2544595, -0.03808181, 0.16371854, -0.0653803, -0.2441088, 0.11416718, -0.21555857, 0.10211368, 0.25117424, -0.0051074354, 0.28539786, 0.004458585], "categories": [], "categories_nodes": [], "categories_segments": [], "categories_sizes": [], "default_left": [0, 0, 0, 0, 0, 0, 0, 0, 0, 0, 0, 0, 0, 0, 0, 0, 0, 0, 0, 0, 0, 0, 0, 0, 0, 0, 0, 0, 0, 0, 0, 0, 0, 0, 0, 0, 0, 0, 0, 0, 0, 0, 0, 0, 0], "id": 3, "left_children": [1, 3, 5, 7, 9, 11, 13, -1, 15, -1, 17, -1, 19, -1, 21, -1, -1, 23, 25, 27, 29, -1, 31, 33, -1, -1, 35, -1, -1, 37, 39, 41, 43, -1, -1, -1, -1, -1, -1, -1, -1, -1, -1, -1, -1], "loss_changes": [22.99704, 1.5299568, 5.205978, 0.9626188, 0.84002495, 3.1582396, 3.5003195, 0.0, 1.4052007, 0.0, 0.8928642, 0.0, 3.3412604, 0.0, 2.1403136, 0.0, 0.0, 1.0829773, 1.743922, 1.4790769, 3.3480408, 0.0, 1.3222156, 1.3668667, 0.0, 0.0, 1.1175423, 0.0, 0.0, 3.6486459, 2.860702, 2.9227898, 2.3811092, 0.0, 0.0, 0.0, 0.0, 0.0, 0.0, 0.0, 0.0, 0.0, 0.0, 0.0, 0.0], "parents": [2147483647, 0, 0, 1, 1, 2, 2, 3, 3, 4, 4, 5, 5, 6, 6, 8, 8, 10, 10, 12, 12, 14, 14, 17, 17, 18, 18, 19, 19, 20, 20, 22, 22, 23, 23, 26, 26, 29, 29, 30, 30, 31, 31, 32, 32], "right_children": [2, 4, 6, 8, 10, 12, 14, -1, 16, -1, 18, -1, 20, -1, 22, -1, -1, 24, 26, 28, 30, -1, 32, 34, -1, -1, 36, -1, -1, 38, 40, 42, 44, -1, -1, -1, -1, -1, -1, -1, -1, -1, -1, -1, -1], "split_conditions": [137.0, 66.0, 528.0, 88.0, 68.0, 144.0, 355.0, -0.28233424, 29.0, 0.054868504, 37.0, 0.34774917, 205.0, 0.43067324, 461.0, 0.09770954, -0.21642487, 16.0, 192300.0, 276.0, 392.0, -0.1581914, 1429.0, 297961.0, -0.27197385, -0.27397949, 224410.0, -0.21844839, 0.08581167, 19281.0, 709.0, 240139.0, 307786.0, -0.2544595, -0.03808181, 0.16371854, -0.0653803, -0.2441088, 0.11416718, -0.21555857, 0.10211368, 0.25117424, -0.0051074354, 0.28539786, 0.004458585], "split_indices": [2, 2, 1, 1, 2, 2, 2, 0, 2, 0, 1, 0, 2, 0, 2, 0, 0, 1, 0, 1, 1, 0, 2, 0, 0, 0, 0, 0, 0, 0, 2, 0, 0, 0, 0, 0, 0, 0, 0, 0, 0, 0, 0, 0, 0], "split_type": [0, 0, 0, 0, 0, 0, 0, 0, 0, 0, 0, 0, 0, 0, 0, 0, 0, 0, 0, 0, 0, 0, 0, 0, 0, 0, 0, 0, 0, 0, 0, 0, 0, 0, 0, 0, 0, 0, 0, 0, 0, 0, 0, 0, 0], "sum_hessian": [136.75476, 56.782772, 79.97199, 20.455843, 36.32693, 45.460247, 34.511745, 17.13726, 3.3185837, 1.3972268, 34.929703, 1.1791507, 44.281097, 2.6799104, 31.831835, 1.6173145, 1.7012693, 19.991919, 14.937785, 9.045583, 35.235516, 1.6523557, 30.17948, 11.3508, 8.641118, 2.5022366, 12.435548, 7.8849845, 1.1605985, 25.231863, 10.003651, 17.86353, 12.315949, 3.2309313, 8.119868, 1.2997366, 11.135812, 1.9171767, 23.314688, 6.967301, 3.0363498, 4.7398524, 13.123676, 8.463255, 3.8526947], "tree_param": {"num_deleted": "0", "num_feature": "5", "num_nodes": "45", "size_leaf_vector": "1"}}, {"base_weights": [-0.11531975, -0.56759, 0.12974174, -0.6504818, -0.184388, 0.17528987, -0.69823694, -0.2932301, -0.52668786, 0.10754456, -0.3335205, 0.024459464, 0.4058077, -0.03992575, -0.25179136, -0.5927949, -0.02586933, -0.22309446, -0.06629011, -0.42590752, 0.1240677, 0.8701884, 0.33373028, -0.27036113, -0.48319083, -0.2731133, 0.12367272, 0.34930784, -0.17363149, 0.15540619, -0.65752524, 0.33720458, 0.07013176, 0.073622786, 0.31971267, -0.13922, 0.39517963, 0.09142622, -0.16374755, 0.10571053, -0.20140585, -0.05912739, 0.20141606, -0.27512616, -0.10621515, -0.08220717, 0.07909246, 0.26146826, 0.09420625], "categories": [], "categories_nodes": [], "categories_segments": [], "categories_sizes": [], "default_left": [0, 0, 0, 0, 0, 0, 0, 0, 0, 0, 0, 0, 0, 0, 0, 0, 0, 0, 0, 0, 0, 0, 0, 0, 0, 0, 0, 0, 0, 0, 0, 0, 0, 0, 0, 0, 0, 0, 0, 0, 0, 0, 0, 0, 0, 0, 0, 0, 0], "id": 4, "left_children": [1, 3, 5, 7, 9, 11, 13, -1, 15, -1, 17, 19, 21, -1, -1, 23, 25, -1, 27, 29, 31, 33, 35, -1, 37, 39, -1, 41, -1, -1, 43, -1, 45, -1, -1, -1, 47, -1, -1, -1, -1, -1, -1, -1, -1, -1, -1, -1, -1], "loss_changes": [14.539222, 1.3428955, 3.3454442, 1.0016632, 0.8956237, 2.834392, 0.25957227, 0.0, 0.9562235, 0.0, 0.83165896, 2.3189251, 0.7904372, 0.0, 0.0, 0.43929672, 0.5965103, 0.0, 1.4725764, 2.3901486, 2.1939042, 0.19246697, 1.6332829, 0.0, 1.215013, 1.0977566, 0.0, 0.8217097, 0.0, 0.0, 0.3029523, 0.0, 2.8060534, 0.0, 0.0, 0.0, 0.808867, 0.0, 0.0, 0.0, 0.0, 0.0, 0.0, 0.0, 0.0, 0.0, 0.0, 0.0, 0.0], "parents": [2147483647, 0, 0, 1, 1, 2, 2, 3, 3, 4, 4, 5, 5, 6, 6, 8, 8, 10, 10, 11, 11, 12, 12, 15, 15, 16, 16, 18, 18, 19, 19, 20, 20, 21, 21, 22, 22, 24, 24, 25, 25, 27, 27, 30, 30, 32, 32, 36, 36], "right_children": [2, 4, 6, 8, 10, 12, 14, -1, 16, -1, 18, 20, 22, -1, -1, 24, 26, -1, 28, 30, 32, 34, 36, -1, 38, 40, -1, 42, -1, -1, 44, -1, 46, -1, -1, -1, 48, -1, -1, -1, -1, -1, -1, -1, -1, -1, -1, -1, -1], "split_conditions": [121.0, 76.0, 347774.0, 251045.0, 98.0, 564.0, 225.0, -0.2932301, 102.0, 0.10754456, 133.0, 213138.0, 311.0, -0.03992575, -0.25179136, 4.0, 321565.0, -0.22309446, 250.0, 5660.0, 233211.0, 12478.0, 443.0, -0.27036113, 5.0, 275030.0, 0.12367272, 88.0, -0.17363149, 0.15540619, 245.0, 0.33720458, 254.0, 0.073622786, 0.31971267, -0.13922, 604.0, 0.09142622, -0.16374755, 0.10571053, -0.20140585, -0.05912739, 0.20141606, -0.27512616, -0.10621515, -0.08220717, 0.07909246, 0.26146826, 0.09420625], "split_indices": [2, 1, 0, 0, 1, 1, 2, 0, 2, 0, 1, 0, 2, 0, 0, 1, 0, 0, 1, 0, 0, 0, 2, 0, 1, 0, 0, 2, 0, 0, 1, 0, 2, 0, 0, 0, 1, 0, 0, 0, 0, 0, 0, 0, 0, 0, 0, 0, 0], "split_type": [0, 0, 0, 0, 0, 0, 0, 0, 0, 0, 0, 0, 0, 0, 0, 0, 0, 0, 0, 0, 0, 0, 0, 0, 0, 0, 0, 0, 0, 0, 0, 0, 0, 0, 0, 0, 0, 0, 0, 0, 0, 0, 0, 0, 0, 0, 0, 0, 0], "sum_hessian": [129.51572, 45.052856, 84.46286, 36.46705, 8.585808, 80.80592, 3.6569407, 8.121562, 28.345488, 1.5477891, 7.0380187, 49.514282, 31.291641, 1.1186743, 2.5382664, 24.87799, 3.4674969, 2.0732827, 4.964736, 8.3744335, 41.139847, 2.7165396, 28.575102, 4.6293545, 20.248636, 2.4573362, 1.0101607, 2.9173245, 2.0474112, 1.4063802, 6.9680533, 1.0900989, 40.049747, 1.1850171, 1.5315226, 1.5749897, 27.00011, 1.2064005, 19.042234, 1.0007405, 1.4565957, 1.2258185, 1.691506, 2.6659288, 4.3021245, 14.264454, 25.785295, 2.5126362, 24.487474], "tree_param": {"num_deleted": "0", "num_feature": "5", "num_nodes": "49", "size_leaf_vector": "1"}}, {"base_weights": [-0.09505723, -0.4868103, 0.093378864, -0.7006148, -0.34520328, 0.12911943, -0.6258452, -0.81887496, -0.15657225, -0.42591056, 0.16529977, 0.034245055, 0.33857635, -0.23082379, -0.03158007, -0.281166, -0.47999376, 0.09776215, -0.19030155, -0.07307098, -0.6815583, 0.14540076, -0.09239483, 0.27460352, -0.0047682323, 0.7926857, 0.2529905, 0.13133472, -0.24345219, -0.22501548, 0.20169908, -0.7969715, -0.16832785, -0.19741334, 0.042850897, 0.31034276, 0.068229936, -0.11645346, 0.30854946, 0.15896232, -0.014027833, -0.1352022, -0.27845475, 0.0912833, -0.18723361, 0.28261515, 0.0005648927, 0.12339076, 0.019728502], "categories": [], "categories_nodes": [], "categories_segments": [], "categories_sizes": [], "default_left": [0, 0, 0, 0, 0, 0, 0, 0, 0, 0, 0, 0, 0, 0, 0, 0, 0, 0, 0, 0, 0, 0, 0, 0, 0, 0, 0, 0, 0, 0, 0, 0, 0, 0, 0, 0, 0, 0, 0, 0, 0, 0, 0, 0, 0, 0, 0, 0, 0], "id": 5, "left_children": [1, 3, 5, 7, 9, 11, 13, 15, 17, 19, 21, 23, 25, -1, -1, -1, 27, -1, -1, 29, 31, -1, -1, -1, 33, 35, 37, -1, -1, -1, 39, 41, 43, -1, 45, -1, -1, -1, 47, -1, -1, -1, -1, -1, -1, -1, -1, -1, -1], "loss_changes": [9.240841, 0.9878874, 2.2644067, 0.850502, 1.1583412, 1.6130356, 0.23234344, 0.04179859, 1.1177835, 2.0321093, 0.8030116, 1.9767867, 0.78563285, 0.0, 0.0, 0.0, 1.9443595, 0.0, 0.0, 2.1633973, 0.65148497, 0.0, 0.0, 0.0, 1.7684689, 0.25061178, 0.9326471, 0.0, 0.0, 0.0, 0.7163986, 0.061544895, 0.9875088, 0.0, 1.9536129, 0.0, 0.0, 0.0, 0.5107269, 0.0, 0.0, 0.0, 0.0, 0.0, 0.0, 0.0, 0.0, 0.0, 0.0], "parents": [2147483647, 0, 0, 1, 1, 2, 2, 3, 3, 4, 4, 5, 5, 6, 6, 7, 7, 8, 8, 9, 9, 10, 10, 11, 11, 12, 12, 16, 16, 19, 19, 20, 20, 24, 24, 25, 25, 26, 26, 30, 30, 31, 31, 32, 32, 34, 34, 38, 38], "right_children": [2, 4, 6, 8, 10, 12, 14, 16, 18, 20, 22, 24, 26, -1, -1, -1, 28, -1, -1, 30, 32, -1, -1, -1, 34, 36, 38, -1, -1, -1, 40, 42, 44, -1, 46, -1, -1, -1, 48, -1, -1, -1, -1, -1, -1, -1, -1, -1, -1], "split_conditions": [121.0, 66.0, 347774.0, 88.0, 133.0, 689.0, 338.0, 13.0, 29.0, 16.0, 95.0, 125.0, 311.0, -0.23082379, -0.03158007, -0.281166, 19.0, 0.09776215, -0.19030155, 297961.0, 113.0, 0.14540076, -0.09239483, 0.27460352, 137.0, 1019.0, 612.0, 0.13133472, -0.24345219, -0.22501548, 73.0, 84.0, 267557.0, -0.19741334, 144.0, 0.31034276, 0.068229936, -0.11645346, 1885.0, 0.15896232, -0.014027833, -0.1352022, -0.27845475, 0.0912833, -0.18723361, 0.28261515, 0.0005648927, 0.12339076, 0.019728502], "split_indices": [2, 2, 0, 1, 1, 1, 1, 1, 2, 1, 2, 2, 2, 0, 0, 0, 2, 0, 0, 0, 2, 0, 0, 0, 2, 1, 2, 0, 0, 0, 2, 2, 0, 0, 2, 0, 0, 0, 2, 0, 0, 0, 0, 0, 0, 0, 0, 0, 0], "split_type": [0, 0, 0, 0, 0, 0, 0, 0, 0, 0, 0, 0, 0, 0, 0, 0, 0, 0, 0, 0, 0, 0, 0, 0, 0, 0, 0, 0, 0, 0, 0, 0, 0, 0, 0, 0, 0, 0, 0, 0, 0, 0, 0, 0, 0, 0, 0, 0, 0], "sum_hessian": [123.56423, 39.6174, 83.94683, 14.211958, 25.405441, 80.754364, 3.1924696, 11.259319, 2.9526386, 22.08038, 3.3250632, 56.38021, 24.374151, 2.1276898, 1.0647798, 7.0364156, 4.222904, 1.6273104, 1.3253282, 9.816996, 12.263383, 1.9709882, 1.3540751, 1.4381332, 54.942078, 2.5551128, 21.819038, 1.0355331, 3.1873708, 2.3347871, 7.4822087, 9.560585, 2.7027984, 2.861866, 52.08021, 1.20819, 1.346923, 1.2625071, 20.556532, 2.735883, 4.7463255, 3.845667, 5.714918, 1.4901062, 1.2126923, 1.3109742, 50.769238, 13.9559765, 6.6005545], "tree_param": {"num_deleted": "0", "num_feature": "5", "num_nodes": "49", "size_leaf_vector": "1"}}, {"base_weights": [-0.079727605, -0.4224986, 0.0700759, -0.25460726, -0.34491462, 0.12827624, -0.2664742, -0.2529917, -0.2668006, 0.07734714, 0.97724915, -0.7166392, 0.12947424, -0.33873016, 0.17043805, 0.1488172, -0.71768904, 0.38745347, 0.07010387, -0.26831058, -0.061238304, 0.63234544, -0.42389393, -0.12922151, -0.4985657, -0.12446785, 0.56524456, 0.108788766, 0.36076283, -0.88157856, -0.0017657598, -0.06278329, 0.28229016, -0.26621315, 0.06295135, -0.222413, 0.02545551, 0.093152404, -0.19377355, 0.31935236, -0.065565206, 0.011406993, 0.15355724, -0.057122353, -0.30534926], "categories": [], "categories_nodes": [], "categories_segments": [], "categories_sizes": [], "default_left": [0, 0, 0, 0, 0, 0, 0, 0, 0, 0, 0, 0, 0, 0, 0, 0, 0, 0, 0, 0, 0, 0, 0, 0, 0, 0, 0, 0, 0, 0, 0, 0, 0, 0, 0, 0, 0, 0, 0, 0, 0, 0, 0, 0, 0], "id": 6, "left_children": [1, 3, 5, -1, 7, 9, 11, -1, 13, 15, 17, 19, 21, 23, 25, 27, 29, -1, -1, -1, -1, 31, 33, 35, 37, -1, 39, 41, -1, 43, -1, -1, -1, -1, -1, -1, -1, -1, -1, -1, -1, -1, -1, -1, -1], "loss_changes": [6.2041974, 0.92121124, 1.6900231, 0.0, 1.0497556, 3.0698347, 2.3722594, 0.0, 0.99400234, 4.0681877, 0.64017963, 0.37649918, 2.3971202, 0.8028505, 1.3601199, 2.6021442, 0.6856563, 0.0, 0.0, 0.0, 0.0, 1.34232, 1.4319762, 1.708552, 1.9102285, 0.0, 1.5365683, 1.7924165, 0.0, 0.25888586, 0.0, 0.0, 0.0, 0.0, 0.0, 0.0, 0.0, 0.0, 0.0, 0.0, 0.0, 0.0, 0.0, 0.0, 0.0], "parents": [2147483647, 0, 0, 1, 1, 2, 2, 4, 4, 5, 5, 6, 6, 8, 8, 9, 9, 10, 10, 11, 11, 12, 12, 13, 13, 14, 14, 15, 15, 16, 16, 21, 21, 22, 22, 23, 23, 24, 24, 26, 26, 27, 27, 29, 29], "right_children": [2, 4, 6, -1, 8, 10, 12, -1, 14, 16, 18, 20, 22, 24, 26, 28, 30, -1, -1, -1, -1, 32, 34, 36, 38, -1, 40, 42, -1, 44, -1, -1, -1, -1, -1, -1, -1, -1, -1, -1, -1, -1, -1, -1, -1], "split_conditions": [121.0, 4.0, 322226.0, -0.25460726, 194807.0, 315905.0, 330.0, -0.2529917, 133.0, 307786.0, 580.0, 292.0, 970.0, 16.0, 73.0, 306613.0, 836.0, 0.38745347, 0.07010387, -0.26831058, -0.061238304, 327576.0, 1751.0, 278302.0, 29.0, -0.12446785, 274226.0, 1429.0, 0.36076283, 98.0, -0.0017657598, -0.06278329, 0.28229016, -0.26621315, 0.06295135, -0.222413, 0.02545551, 0.093152404, -0.19377355, 0.31935236, -0.065565206, 0.011406993, 0.15355724, -0.057122353, -0.30534926], "split_indices": [2, 1, 0, 0, 0, 0, 1, 0, 1, 0, 1, 2, 2, 1, 2, 0, 1, 0, 0, 0, 0, 0, 2, 0, 2, 0, 0, 2, 0, 1, 0, 0, 0, 0, 0, 0, 0, 0, 0, 0, 0, 0, 0, 0, 0], "split_type": [0, 0, 0, 0, 0, 0, 0, 0, 0, 0, 0, 0, 0, 0, 0, 0, 0, 0, 0, 0, 0, 0, 0, 0, 0, 0, 0, 0, 0, 0, 0, 0, 0, 0, 0, 0, 0, 0, 0, 0, 0, 0, 0, 0, 0], "sum_hessian": [119.249176, 35.712868, 83.53631, 3.9693024, 31.743565, 71.74767, 11.788632, 2.973826, 28.76974, 68.71654, 3.0311356, 5.1376085, 6.651024, 24.898945, 3.8707952, 63.79452, 4.922014, 1.612655, 1.4184804, 3.2615092, 1.8760992, 3.4097266, 3.2412975, 11.557765, 13.341179, 1.5386913, 2.332104, 62.522682, 1.2718406, 3.806963, 1.1150512, 1.0012301, 2.4084964, 1.6409435, 1.6003538, 2.3563762, 9.201389, 1.8847467, 11.456432, 1.2058526, 1.1262513, 54.11604, 8.406642, 1.0216873, 2.7852757], "tree_param": {"num_deleted": "0", "num_feature": "5", "num_nodes": "45", "size_leaf_vector": "1"}}, {"base_weights": [-0.066643946, -0.4563516, 0.023880344, -0.5351566, -0.022073677, 0.059327316, -0.66288126, -0.62171054, -0.011911128, 0.1443655, -0.14091788, -0.2036353, 0.10570122, -0.23779416, -0.03259966, -0.79677916, -0.40962526, 0.15150087, -0.18075743, -0.49036503, 0.27942348, 0.59733397, 0.07069891, -0.26596692, -0.0914077, 0.103641346, -0.5612493, 0.07734035, -0.6979289, -0.2063671, 0.68744314, 0.21973018, 0.31952503, 0.23752117, 0.048259746, 0.06128163, -0.22535047, -0.28254882, -0.06333957, 0.06575614, -0.17512853, 0.28964633, 0.028292302, 0.18692707, -0.090260305, -0.046035547, 0.040532883], "categories": [], "categories_nodes": [], "categories_segments": [], "categories_sizes": [], "default_left": [0, 0, 0, 0, 0, 0, 0, 0, 0, 0, 0, 0, 0, 0, 0, 0, 0, 0, 0, 0, 0, 0, 0, 0, 0, 0, 0, 0, 0, 0, 0, 0, 0, 0, 0, 0, 0, 0, 0, 0, 0, 0, 0, 0, 0, 0, 0], "id": 7, "left_children": [1, 3, 5, 7, 9, 11, 13, 15, 17, -1, -1, 19, 21, -1, -1, 23, 25, -1, -1, 27, 29, 31, 33, -1, -1, -1, 35, -1, 37, 39, 41, 43, -1, -1, 45, -1, -1, -1, -1, -1, -1, -1, -1, -1, -1, -1, -1], "loss_changes": [4.1196175, 0.7412319, 2.3632421, 0.8341198, 1.2224575, 1.1397138, 0.25674462, 0.26488066, 1.420723, 0.0, 0.0, 2.0883296, 1.3104657, 0.0, 0.0, 0.068516254, 1.2539567, 0.0, 0.0, 1.6091745, 1.3082532, 0.66504025, 1.1674376, 0.0, 0.0, 0.0, 1.3298609, 0.0, 0.6885989, 0.6828933, 0.47447836, 1.0434834, 0.0, 0.0, 1.305423, 0.0, 0.0, 0.0, 0.0, 0.0, 0.0, 0.0, 0.0, 0.0, 0.0, 0.0, 0.0], "parents": [2147483647, 0, 0, 1, 1, 2, 2, 3, 3, 4, 4, 5, 5, 6, 6, 7, 7, 8, 8, 11, 11, 12, 12, 15, 15, 16, 16, 19, 19, 20, 20, 21, 21, 22, 22, 26, 26, 28, 28, 29, 29, 30, 30, 31, 31, 34, 34], "right_children": [2, 4, 6, 8, 10, 12, 14, 16, 18, -1, -1, 20, 22, -1, -1, 24, 26, -1, -1, 28, 30, 32, 34, -1, -1, -1, 36, -1, 38, 40, 42, 44, -1, -1, 46, -1, -1, -1, -1, -1, -1, -1, -1, -1, -1, -1, -1], "split_conditions": [83.0, 358117.0, 347774.0, 88.0, 7.0, 194807.0, 338.0, 9.0, 146.0, 0.1443655, -0.14091788, 611.0, 233211.0, -0.23779416, -0.03259966, 334659.0, 16.0, 0.15150087, -0.18075743, 5660.0, 802.0, 222466.0, 86.0, -0.26596692, -0.0914077, 0.103641346, 12.0, 0.07734035, 20079.0, 311.0, 1251.0, 211837.0, 0.31952503, 0.23752117, 245.0, 0.06128163, -0.22535047, -0.28254882, -0.06333957, 0.06575614, -0.17512853, 0.28964633, 0.028292302, 0.18692707, -0.090260305, -0.046035547, 0.040532883], "split_indices": [2, 0, 0, 1, 1, 0, 1, 1, 1, 0, 0, 1, 0, 0, 0, 0, 2, 0, 0, 0, 2, 0, 2, 0, 0, 0, 1, 0, 0, 2, 2, 0, 0, 0, 2, 0, 0, 0, 0, 0, 0, 0, 0, 0, 0, 0, 0], "split_type": [0, 0, 0, 0, 0, 0, 0, 0, 0, 0, 0, 0, 0, 0, 0, 0, 0, 0, 0, 0, 0, 0, 0, 0, 0, 0, 0, 0, 0, 0, 0, 0, 0, 0, 0, 0, 0, 0, 0, 0, 0, 0, 0, 0, 0, 0, 0], "sum_hessian": [115.46688, 21.003872, 94.46301, 17.58125, 3.4226227, 90.69541, 3.7676005, 14.924324, 2.6569252, 1.5758859, 1.8467368, 13.088138, 77.60727, 2.7042127, 1.0633878, 6.6654, 8.2589245, 1.4941632, 1.1627619, 8.203596, 4.884542, 4.090314, 73.51696, 4.959039, 1.7063609, 1.1672884, 7.0916357, 1.7290794, 6.474517, 2.4553776, 2.4291642, 3.0764909, 1.0138232, 1.1841122, 72.33285, 1.3946264, 5.6970096, 3.6906426, 2.783874, 1.3510871, 1.1042906, 1.2264644, 1.2026998, 1.6225005, 1.4539905, 21.539593, 50.79325], "tree_param": {"num_deleted": "0", "num_feature": "5", "num_nodes": "47", "size_leaf_vector": "1"}}, {"base_weights": [-0.05391654, -0.5350456, -0.0027389876, -0.2535179, -0.20964053, 0.07064173, -0.14532134, 0.22683042, -0.21939127, -0.0007725997, 0.8617231, -0.28355584, -0.07043442, -0.17496406, 0.20257734, -0.22557293, 0.041420016, 0.039122064, 1.0982552, 0.5556365, -0.14215094, 0.10269782, -0.18446168, -0.029983819, 0.31846774, 0.12453951, 0.41090336, 0.24935257, 0.0313588, -0.36135012, 0.16689703, 0.02477586, -0.31970656, 0.18242013, 0.023801368, -0.05942503, -0.24727121, 0.1446423, -0.072268926], "categories": [], "categories_nodes": [], "categories_segments": [], "categories_sizes": [], "default_left": [0, 0, 0, 0, 0, 0, 0, 0, 0, 0, 0, 0, 0, 0, 0, 0, 0, 0, 0, 0, 0, 0, 0, 0, 0, 0, 0, 0, 0, 0, 0, 0, 0, 0, 0, 0, 0, 0, 0], "id": 8, "left_children": [1, 3, 5, -1, 7, 9, 11, 13, -1, 15, 17, -1, 19, 21, -1, -1, 23, -1, 25, 27, 29, -1, -1, 31, 33, -1, -1, -1, -1, 35, 37, -1, -1, -1, -1, -1, -1, -1, -1], "loss_changes": [2.7892754, 0.9215851, 1.0926121, 0.0, 1.6786172, 3.8971174, 2.0584629, 0.9074103, 0.0, 2.0676618, 0.84477425, 0.0, 1.5840255, 0.91697216, 0.0, 0.0, 1.2318759, 0.0, 0.20662785, 0.36665642, 2.1516259, 0.0, 0.0, 5.922293, 0.83455944, 0.0, 0.0, 0.0, 0.0, 1.2255588, 1.8508956, 0.0, 0.0, 0.0, 0.0, 0.0, 0.0, 0.0, 0.0], "parents": [2147483647, 0, 0, 1, 1, 2, 2, 4, 4, 5, 5, 6, 6, 7, 7, 9, 9, 10, 10, 12, 12, 13, 13, 16, 16, 18, 18, 19, 19, 20, 20, 23, 23, 24, 24, 29, 29, 30, 30], "right_children": [2, 4, 6, -1, 8, 10, 12, 14, -1, 16, 18, -1, 20, 22, -1, -1, 24, -1, 26, 28, 30, -1, -1, 32, 34, -1, -1, -1, -1, 36, 38, -1, -1, -1, -1, -1, -1, -1, -1], "split_conditions": [66.0, 13.0, 302954.0, -0.2535179, 29.0, 297452.0, 305160.0, 15.0, -0.21939127, 25.0, 173.0, -0.28355584, 73.0, 11.0, 0.20257734, -0.22557293, 1058.0, 0.039122064, 300465.0, 343585.0, 495.0, 0.10269782, -0.18446168, 872.0, 981.0, 0.12453951, 0.41090336, 0.24935257, 0.0313588, 311.0, 1111.0, 0.02477586, -0.31970656, 0.18242013, 0.023801368, -0.05942503, -0.24727121, 0.1446423, -0.072268926], "split_indices": [2, 1, 0, 0, 2, 0, 0, 2, 0, 1, 2, 0, 2, 2, 0, 0, 2, 0, 0, 0, 2, 0, 0, 2, 1, 0, 0, 0, 0, 2, 2, 0, 0, 0, 0, 0, 0, 0, 0], "split_type": [0, 0, 0, 0, 0, 0, 0, 0, 0, 0, 0, 0, 0, 0, 0, 0, 0, 0, 0, 0, 0, 0, 0, 0, 0, 0, 0, 0, 0, 0, 0, 0, 0, 0, 0, 0, 0, 0, 0], "sum_hessian": [112.33874, 9.891579, 102.44716, 4.247773, 5.643806, 67.970406, 34.476753, 3.3805292, 2.263277, 63.25878, 4.7116203, 1.9566224, 32.52013, 2.1046095, 1.2759196, 2.469763, 60.78902, 1.5305994, 3.1810207, 2.6488156, 29.871315, 1.0691799, 1.0354296, 49.041317, 11.747703, 1.6237617, 1.5572591, 1.1213602, 1.5274554, 17.37703, 12.494284, 45.06364, 3.977675, 4.615385, 7.1323175, 13.901655, 3.4753752, 6.943956, 5.5503283], "tree_param": {"num_deleted": "0", "num_feature": "5", "num_nodes": "39", "size_leaf_vector": "1"}}, {"base_weights": [-0.04606373, -0.34816393, 0.015233464, -0.43017486, 0.031194065, 0.038990106, -0.21633194, -0.7096902, -0.23309335, 0.13264444, -0.116407655, -0.20194279, 0.07918464, -0.24599212, -0.061731454, -0.20124917, -0.069430605, -0.2067155, 0.017265566, 0.471779, 0.050867364, 0.33406332, -0.28031468, 0.49764338, -0.19717503, 0.15451585, 0.2678509, -0.15997231, 0.07589228, -0.058105066, 0.22394218, 0.06508615, -0.13772486, -0.017374745, 0.25494358, -0.18532325, 0.0039740764, 0.19270897, -0.061308242, 0.20805228, 0.014051219], "categories": [], "categories_nodes": [], "categories_segments": [], "categories_sizes": [], "default_left": [0, 0, 0, 0, 0, 0, 0, 0, 0, 0, 0, 0, 0, 0, 0, 0, 0, 0, 0, 0, 0, 0, 0, 0, 0, 0, 0, 0, 0, 0, 0, 0, 0, 0, 0, 0, 0, 0, 0, 0, 0], "id": 9, "left_children": [1, 3, 5, 7, 9, 11, -1, 13, 15, -1, -1, 17, 19, -1, -1, -1, 21, -1, 23, 25, 27, 29, 31, 33, 35, 37, -1, -1, 39, -1, -1, -1, -1, -1, -1, -1, -1, -1, -1, -1, -1], "loss_changes": [2.0598223, 0.5969584, 1.6583095, 0.68787456, 0.90658706, 0.8994537, 0.0, 0.16006446, 0.7109332, 0.0, 0.0, 1.4347196, 0.8531756, 0.0, 0.0, 0.0, 0.84342754, 0.0, 1.1452552, 0.5550052, 1.1325974, 0.90217674, 0.66238046, 0.71854067, 0.6935112, 0.8609249, 0.0, 0.0, 1.2688864, 0.0, 0.0, 0.0, 0.0, 0.0, 0.0, 0.0, 0.0, 0.0, 0.0, 0.0, 0.0], "parents": [2147483647, 0, 0, 1, 1, 2, 2, 3, 3, 4, 4, 5, 5, 7, 7, 8, 8, 11, 11, 12, 12, 16, 16, 18, 18, 19, 19, 20, 20, 21, 21, 22, 22, 23, 23, 24, 24, 25, 25, 28, 28], "right_children": [2, 4, 6, 8, 10, 12, -1, 14, 16, -1, -1, 18, 20, -1, -1, -1, 22, -1, 24, 26, 28, 30, 32, 34, 36, 38, -1, -1, 40, -1, -1, -1, -1, -1, -1, -1, -1, -1, -1, -1, -1], "split_conditions": [83.0, 358117.0, 353931.0, 9.0, 7.0, 194807.0, -0.21633194, 334659.0, 239121.0, 0.13264444, -0.116407655, 254.0, 233211.0, -0.24599212, -0.061731454, -0.20124917, 29.0, -0.2067155, 6961.0, 222466.0, 237287.0, 15.0, 12.0, 2501.0, 14711.0, 195977.0, 0.2678509, -0.15997231, 242113.0, -0.058105066, 0.22394218, 0.06508615, -0.13772486, -0.017374745, 0.25494358, -0.18532325, 0.0039740764, 0.19270897, -0.061308242, 0.20805228, 0.014051219], "split_indices": [2, 0, 0, 1, 1, 0, 0, 0, 0, 0, 0, 1, 0, 0, 0, 0, 2, 0, 0, 0, 0, 2, 1, 0, 0, 0, 0, 0, 0, 0, 0, 0, 0, 0, 0, 0, 0, 0, 0, 0, 0], "split_type": [0, 0, 0, 0, 0, 0, 0, 0, 0, 0, 0, 0, 0, 0, 0, 0, 0, 0, 0, 0, 0, 0, 0, 0, 0, 0, 0, 0, 0, 0, 0, 0, 0, 0, 0, 0, 0, 0, 0, 0, 0], "sum_hessian": [109.947754, 17.75638, 92.191376, 14.489939, 3.2664409, 90.2274, 1.963971, 4.916294, 9.573645, 1.6218624, 1.6445786, 12.325015, 77.90239, 3.5189674, 1.3973266, 1.7620242, 7.8116207, 3.1599157, 9.165099, 4.1873903, 73.715, 2.4808297, 5.330791, 2.421016, 6.744083, 3.1676006, 1.0197897, 2.1940932, 71.520905, 1.320893, 1.1599367, 1.3531667, 3.9776244, 1.2634386, 1.1575774, 1.6034789, 5.140604, 1.0077562, 2.1598444, 2.1859345, 69.33497], "tree_param": {"num_deleted": "0", "num_feature": "5", "num_nodes": "41", "size_leaf_vector": "1"}}, {"base_weights": [-0.03835736, -0.44255733, -0.0010864042, -0.2341157, -0.1464343, -0.031045232, 0.27395183, 0.16818972, -0.19172211, -0.3426041, 0.009448391, 0.4484501, -0.18621531, 0.33636972, -0.055884507, 0.04619772, -0.47005066, 0.116937265, -0.17251386, -0.059453763, 0.6166794, -0.17039962, 0.080843635, -0.046113938, 0.19328387, 0.118778355, -0.122713365, -0.24097863, -0.16980396, 0.042852465, 0.7054605, -0.530628, 0.0077709085, 0.2970712, 0.18373053, 0.038770325, -0.17784679, -0.0063369568, 0.24176423, 0.049845763, 0.254662, -0.01789547, -0.22335288, 0.20043215, -0.053043842, -0.07236989, 0.121961884], "categories": [], "categories_nodes": [], "categories_segments": [], "categories_sizes": [], "default_left": [0, 0, 0, 0, 0, 0, 0, 0, 0, 0, 0, 0, 0, 0, 0, 0, 0, 0, 0, 0, 0, 0, 0, 0, 0, 0, 0, 0, 0, 0, 0, 0, 0, 0, 0, 0, 0, 0, 0, 0, 0, 0, 0, 0, 0, 0, 0], "id": 10, "left_children": [1, 3, 5, -1, 7, 9, 11, 13, -1, 15, 17, 19, 21, 23, -1, 25, 27, 29, 31, -1, 33, -1, -1, -1, -1, -1, -1, -1, 35, 37, 39, 41, 43, -1, 45, -1, -1, -1, -1, -1, -1, -1, -1, -1, -1, -1, -1], "loss_changes": [1.6434903, 0.8071245, 0.8400296, 0.0, 1.059032, 1.1626738, 0.88764536, 0.33320007, 0.0, 0.5468335, 1.6299418, 0.943992, 0.7550212, 0.61726797, 0.0, 0.7234461, 0.67104363, 2.2516427, 2.0034807, 0.0, 0.8269372, 0.0, 0.0, 0.0, 0.0, 0.0, 0.0, 0.0, 0.774054, 2.3381338, 0.30653596, 1.0016122, 2.7489052, 0.0, 0.48790222, 0.0, 0.0, 0.0, 0.0, 0.0, 0.0, 0.0, 0.0, 0.0, 0.0, 0.0, 0.0], "parents": [2147483647, 0, 0, 1, 1, 2, 2, 4, 4, 5, 5, 6, 6, 7, 7, 9, 9, 10, 10, 11, 11, 12, 12, 13, 13, 15, 15, 16, 16, 17, 17, 18, 18, 20, 20, 28, 28, 29, 29, 30, 30, 31, 31, 32, 32, 34, 34], "right_children": [2, 4, 6, -1, 8, 10, 12, 14, -1, 16, 18, 20, 22, 24, -1, 26, 28, 30, 32, -1, 34, -1, -1, -1, -1, -1, -1, -1, 36, 38, 40, 42, 44, -1, 46, -1, -1, -1, -1, -1, -1, -1, -1, -1, -1, -1, -1], "split_conditions": [66.0, 13.0, 1352.0, -0.2341157, 29.0, 194807.0, 1885.0, 280782.0, -0.19172211, 6961.0, 302954.0, 9045.0, 2500.0, 249589.0, -0.055884507, 216.0, 487.0, 297452.0, 315905.0, -0.059453763, 970.0, -0.17039962, 0.080843635, -0.046113938, 0.19328387, 0.118778355, -0.122713365, -0.24097863, 1134.0, 1615.0, 173.0, 107.0, 322991.0, 0.2970712, 1482.0, 0.038770325, -0.17784679, -0.0063369568, 0.24176423, 0.049845763, 0.254662, -0.01789547, -0.22335288, 0.20043215, -0.053043842, -0.07236989, 0.121961884], "split_indices": [2, 1, 1, 0, 2, 0, 2, 0, 0, 0, 0, 0, 2, 0, 0, 2, 2, 0, 0, 0, 2, 0, 0, 0, 0, 0, 0, 0, 2, 2, 2, 1, 0, 0, 1, 0, 0, 0, 0, 0, 0, 0, 0, 0, 0, 0, 0], "split_type": [0, 0, 0, 0, 0, 0, 0, 0, 0, 0, 0, 0, 0, 0, 0, 0, 0, 0, 0, 0, 0, 0, 0, 0, 0, 0, 0, 0, 0, 0, 0, 0, 0, 0, 0, 0, 0, 0, 0, 0, 0, 0, 0, 0, 0, 0, 0], "sum_hessian": [108.12579, 8.210427, 99.91537, 3.0712671, 5.1391606, 90.901, 9.014363, 3.5381296, 1.601031, 9.597433, 81.303566, 6.554368, 2.4599948, 2.4342563, 1.1038733, 2.5267076, 7.070726, 51.3358, 29.967768, 1.3164084, 5.23796, 1.204451, 1.255544, 1.1325017, 1.3017545, 1.5026336, 1.0240741, 2.557307, 4.513419, 46.548916, 4.786883, 9.384099, 20.58367, 2.1208506, 3.1171093, 3.0510674, 1.4623516, 43.84507, 2.7038472, 1.4589648, 3.3279178, 3.3300605, 6.0540385, 3.924498, 16.659172, 1.0437248, 2.0733845], "tree_param": {"num_deleted": "0", "num_feature": "5", "num_nodes": "47", "size_leaf_vector": "1"}}, {"base_weights": [-0.030575408, -0.20534262, -0.0121126585, -0.042356737, 0.2766809, -0.3334404, -0.0052094776, 0.6994707, -0.0334846, -0.19596936, -0.11350967, 0.08228064, -0.16261916, -0.02932208, 0.3818599, 0.2658941, -0.2440472, 0.09544495, -0.28557768, 0.039204374, 0.7203259, 0.16919464, -0.23282905, -0.033716995, 0.47187832, -0.13879617, 0.0055179084, -0.003210141, 0.17783207, 0.27810073, 0.06936614, -0.04016219, -0.24688284, -0.02642854, 0.2893745], "categories": [], "categories_nodes": [], "categories_segments": [], "categories_sizes": [], "default_left": [0, 0, 0, 0, 0, 0, 0, 0, 0, 0, 0, 0, 0, 0, 0, 0, 0, 0, 0, 0, 0, 0, 0, 0, 0, 0, 0, 0, 0, 0, 0, 0, 0, 0, 0], "id": 11, "left_children": [1, -1, 3, 5, 7, 9, 11, 13, 15, -1, 17, 19, 21, -1, -1, 23, -1, -1, 25, 27, 29, -1, 31, -1, 33, -1, -1, -1, -1, -1, -1, -1, -1, -1, -1], "loss_changes": [1.2809225, 0.0, 0.9277057, 1.0341225, 1.3445314, 0.6872629, 1.1973685, 2.0940812, 1.7961733, 0.0, 0.6571884, 1.5087714, 1.7152808, 0.0, 0.0, 0.49271753, 0.0, 0.0, 0.33031633, 1.4827605, 0.13735509, 0.0, 1.5845196, 0.0, 1.1460146, 0.0, 0.0, 0.0, 0.0, 0.0, 0.0, 0.0, 0.0, 0.0, 0.0], "parents": [2147483647, 0, 0, 2, 2, 3, 3, 4, 4, 5, 5, 6, 6, 7, 7, 8, 8, 10, 10, 11, 11, 12, 12, 15, 15, 18, 18, 19, 19, 20, 20, 22, 22, 24, 24], "right_children": [2, -1, 4, 6, 8, 10, 12, 14, 16, -1, 18, 20, 22, -1, -1, 24, -1, -1, 26, 28, 30, -1, 32, -1, 34, -1, -1, -1, -1, -1, -1, -1, -1, -1, -1], "split_conditions": [4.0, -0.20534262, 1352.0, 194807.0, 1658.0, 259.0, 302954.0, 293903.0, 309358.0, -0.19596936, 379.0, 300465.0, 7.0, -0.02932208, 0.3818599, 650.0, -0.2440472, 0.09544495, 611.0, 1429.0, 301227.0, 0.16919464, 353931.0, -0.033716995, 2264.0, -0.13879617, 0.0055179084, -0.003210141, 0.17783207, 0.27810073, 0.06936614, -0.04016219, -0.24688284, -0.02642854, 0.2893745], "split_indices": [1, 0, 1, 0, 1, 1, 0, 0, 0, 0, 1, 0, 1, 0, 0, 2, 0, 0, 1, 2, 0, 0, 0, 0, 1, 0, 0, 0, 0, 0, 0, 0, 0, 0, 0], "split_type": [0, 0, 0, 0, 0, 0, 0, 0, 0, 0, 0, 0, 0, 0, 0, 0, 0, 0, 0, 0, 0, 0, 0, 0, 0, 0, 0, 0, 0, 0, 0, 0, 0, 0, 0], "sum_hessian": [105.78669, 1.9142948, 103.87239, 94.79795, 9.074442, 9.825981, 84.97197, 3.3088965, 5.7655454, 3.2011602, 6.6248217, 54.922626, 30.049345, 1.7313223, 1.5775741, 4.6427116, 1.1228336, 1.6461699, 4.9786515, 52.443462, 2.4791644, 2.0280697, 28.021275, 1.7969819, 2.8457298, 2.8161101, 2.1625414, 49.006172, 3.437288, 1.1133884, 1.3657758, 25.047901, 2.9733746, 1.7162995, 1.1294302], "tree_param": {"num_deleted": "0", "num_feature": "5", "num_nodes": "35", "size_leaf_vector": "1"}}, {"base_weights": [-0.020737277, -0.37327805, 0.0090386635, -0.6202707, -0.016654732, 0.08684277, -0.0526646, -0.21615274, -0.06992614, 0.069460385, -0.09338198, -0.04655248, 0.73363703, 0.63674855, -0.10750682, -0.10626842, 0.48544943, 0.305618, 1.0434108, 0.32590517, 0.007209531, -0.57150143, 0.014834278, 0.012463751, -0.37570235, 0.31300136, -0.033753607, -0.04107852, 0.1805242, 0.37863186, 0.09402684, -0.29749435, -0.30339098, 0.5014768, -0.062173057, -0.016498063, 0.18556724, 0.009368774, -0.14839248, -0.0094444435, -0.19174857, -0.08655881, 0.23950922, -0.27656835, 0.0007490416], "categories": [], "categories_nodes": [], "categories_segments": [], "categories_sizes": [], "default_left": [0, 0, 0, 0, 0, 0, 0, 0, 0, 0, 0, 0, 0, 0, 0, 0, 0, 0, 0, 0, 0, 0, 0, 0, 0, 0, 0, 0, 0, 0, 0, 0, 0, 0, 0, 0, 0, 0, 0, 0, 0, 0, 0, 0, 0], "id": 12, "left_children": [1, 3, 5, 7, 9, 11, 13, -1, -1, -1, -1, 15, 17, 19, 21, 23, 25, 27, 29, -1, -1, 31, 33, 35, 37, -1, -1, -1, -1, -1, -1, -1, 39, 41, 43, -1, -1, -1, -1, -1, -1, -1, -1, -1, -1], "loss_changes": [1.1023858, 0.7099819, 0.4727335, 0.01849866, 0.39188653, 3.7880785, 2.148277, 0.0, 0.0, 0.0, 0.0, 1.2273667, 0.67536736, 1.1303244, 2.9495509, 1.0954174, 1.4233001, 0.68034244, 0.2327981, 0.0, 0.0, 0.9197509, 1.6041938, 1.0412023, 0.5217738, 0.0, 0.0, 0.0, 0.0, 0.0, 0.0, 0.0, 0.7153432, 1.6012633, 2.066656, 0.0, 0.0, 0.0, 0.0, 0.0, 0.0, 0.0, 0.0, 0.0, 0.0], "parents": [2147483647, 0, 0, 1, 1, 2, 2, 3, 3, 4, 4, 5, 5, 6, 6, 11, 11, 12, 12, 13, 13, 14, 14, 15, 15, 16, 16, 17, 17, 18, 18, 21, 21, 22, 22, 23, 23, 24, 24, 32, 32, 33, 33, 34, 34], "right_children": [2, 4, 6, 8, 10, 12, 14, -1, -1, -1, -1, 16, 18, 20, 22, 24, 26, 28, 30, -1, -1, 32, 34, 36, 38, -1, -1, -1, -1, -1, -1, -1, 40, 42, 44, -1, -1, -1, -1, -1, -1, -1, -1, -1, -1], "split_conditions": [66.0, 31.0, 311.0, 13.0, 98.0, 245.0, 192.0, -0.21615274, -0.06992614, 0.069460385, -0.09338198, 330.0, 222.0, 258232.0, 487.0, 144.0, 1.0, 258232.0, 338.0, 0.32590517, 0.007209531, 255094.0, 392.0, 137.0, 251953.0, 0.31300136, -0.033753607, -0.04107852, 0.1805242, 0.37863186, 0.09402684, -0.29749435, 302954.0, 250.0, 421.0, -0.016498063, 0.18556724, 0.009368774, -0.14839248, -0.0094444435, -0.19174857, -0.08655881, 0.23950922, -0.27656835, 0.0007490416], "split_indices": [2, 1, 2, 1, 1, 2, 1, 0, 0, 0, 0, 1, 1, 0, 2, 2, 4, 0, 1, 0, 0, 0, 1, 2, 0, 0, 0, 0, 0, 0, 0, 0, 0, 1, 1, 0, 0, 0, 0, 0, 0, 0, 0, 0, 0], "split_type": [0, 0, 0, 0, 0, 0, 0, 0, 0, 0, 0, 0, 0, 0, 0, 0, 0, 0, 0, 0, 0, 0, 0, 0, 0, 0, 0, 0, 0, 0, 0, 0, 0, 0, 0, 0, 0, 0, 0, 0, 0, 0, 0, 0, 0], "sum_hessian": [103.695366, 7.1776223, 96.51774, 3.803842, 3.3737803, 42.50901, 54.00873, 2.3377278, 1.4661145, 1.9473963, 1.4263839, 36.01026, 6.4987516, 3.1978974, 50.810833, 33.095604, 2.9146547, 3.5627, 2.9360518, 1.3986117, 1.7992858, 9.835821, 40.975014, 23.634338, 9.4612665, 1.1225289, 1.7921258, 1.6437807, 1.9189193, 1.6983161, 1.2377356, 2.7802832, 7.0555377, 4.8450418, 36.12997, 22.08552, 1.5488185, 2.306699, 7.1545677, 4.502855, 2.5526829, 1.3311231, 3.5139186, 1.6002917, 34.52968], "tree_param": {"num_deleted": "0", "num_feature": "5", "num_nodes": "45", "size_leaf_vector": "1"}}, {"base_weights": [-0.014758167, -0.18139009, -0.0006333123, -0.02469679, 0.2716701, -0.19436677, 0.0331801, 0.25040844, -0.01507372, -0.08311468, -0.29664084, 0.96313155, -0.030943347, 0.24955834, -0.21748042, -0.23528889, 0.45324215, 0.329239, 0.09647384, -0.24345657, 0.058325306, 0.38623026, -0.038765755, 0.0016712801, -0.1401384, -0.009023837, 0.19418441, 0.007590814, -0.20641309, 0.16117863, -0.006250588, -0.045652915, 0.19500504], "categories": [], "categories_nodes": [], "categories_segments": [], "categories_sizes": [], "default_left": [0, 0, 0, 0, 0, 0, 0, 0, 0, 0, 0, 0, 0, 0, 0, 0, 0, 0, 0, 0, 0, 0, 0, 0, 0, 0, 0, 0, 0, 0, 0, 0, 0], "id": 13, "left_children": [1, -1, 3, 5, 7, 9, 11, -1, 13, 15, -1, 17, 19, 21, -1, 23, 25, -1, -1, 27, 29, 31, -1, -1, -1, -1, -1, -1, -1, -1, -1, -1, -1], "loss_changes": [0.8577598, 0.0, 0.6723665, 0.9320357, 1.3576831, 2.049593, 4.271744, 0.0, 1.4024267, 1.9225837, 0.0, 0.04521513, 1.2950282, 0.3336305, 0.0, 1.0071661, 0.5126765, 0.0, 0.0, 2.4268417, 1.8443247, 0.70651484, 0.0, 0.0, 0.0, 0.0, 0.0, 0.0, 0.0, 0.0, 0.0, 0.0, 0.0], "parents": [2147483647, 0, 0, 2, 2, 3, 3, 4, 4, 5, 5, 6, 6, 8, 8, 9, 9, 11, 11, 12, 12, 13, 13, 15, 15, 16, 16, 19, 19, 20, 20, 21, 21], "right_children": [2, -1, 4, 6, 8, 10, 12, -1, 14, 16, -1, 18, 20, 22, -1, 24, 26, -1, -1, 28, 30, 32, -1, -1, -1, -1, -1, -1, -1, -1, -1, -1, -1], "split_conditions": [4.0, -0.18139009, 1482.0, 249991.0, 1658.0, 981.0, 254168.0, 0.25040844, 309358.0, 564.0, -0.29664084, 299.0, 272014.0, 1786.0, -0.21748042, 258.0, 17584.0, 0.329239, 0.09647384, 521.0, 282372.0, 9045.0, -0.038765755, 0.0016712801, -0.1401384, -0.009023837, 0.19418441, 0.007590814, -0.20641309, 0.16117863, -0.006250588, -0.045652915, 0.19500504], "split_indices": [1, 0, 1, 0, 1, 1, 0, 0, 0, 1, 0, 1, 0, 2, 0, 2, 0, 0, 0, 2, 0, 0, 0, 0, 0, 0, 0, 0, 0, 0, 0, 0, 0], "split_type": [0, 0, 0, 0, 0, 0, 0, 0, 0, 0, 0, 0, 0, 0, 0, 0, 0, 0, 0, 0, 0, 0, 0, 0, 0, 0, 0, 0, 0, 0, 0, 0, 0], "sum_hessian": [101.994774, 1.4075366, 100.587234, 93.25554, 7.3316965, 23.119856, 70.13569, 1.8291662, 5.5025306, 21.248812, 1.8710433, 3.6197813, 66.51591, 4.4806213, 1.0219091, 16.989813, 4.2589993, 2.4054718, 1.2143095, 19.164827, 47.351078, 3.2781215, 1.2024999, 8.811467, 8.178346, 1.4621049, 2.7968943, 12.532086, 6.6327405, 5.8954554, 41.455624, 1.2170813, 2.0610402], "tree_param": {"num_deleted": "0", "num_feature": "5", "num_nodes": "33", "size_leaf_vector": "1"}}, {"base_weights": [-0.010598347, -0.34577224, 0.01656446, -0.0987221, -0.2078726, 0.026099993, -0.097176276, -0.3278201, 0.09357014, -0.010162425, 0.16674626, -0.016711278, -0.1695432, 0.036629353, -0.54844093, 0.24845459, 0.037070356, 0.0066633723, 0.26964897, -0.67349476, 0.01324047, -0.19918768, 0.1523372, -0.19247355, 0.009346185, -0.030306607, -0.23882844, 0.18127106, -0.0052689025], "categories": [], "categories_nodes": [], "categories_segments": [], "categories_sizes": [], "default_left": [0, 0, 0, 0, 0, 0, 0, 0, 0, 0, 0, 0, 0, 0, 0, 0, 0, 0, 0, 0, 0, 0, 0, 0, 0, 0, 0, 0, 0], "id": 14, "left_children": [1, 3, 5, 7, -1, 9, -1, 11, -1, 13, 15, -1, -1, 17, 19, -1, 21, 23, -1, 25, -1, -1, 27, -1, -1, -1, -1, -1, -1], "loss_changes": [0.93621886, 0.5925904, 0.3185034, 0.6355489, 0.0, 0.48019415, 0.0, 0.23499924, 0.0, 1.9225068, 1.6237214, 0.0, 0.0, 1.8136455, 0.4820068, 0.0, 1.4888742, 1.1165348, 0.0, 0.27761173, 0.0, 0.0, 1.2054315, 0.0, 0.0, 0.0, 0.0, 0.0, 0.0], "parents": [2147483647, 0, 0, 1, 1, 2, 2, 3, 3, 5, 5, 7, 7, 9, 9, 10, 10, 13, 13, 14, 14, 16, 16, 17, 17, 19, 19, 22, 22], "right_children": [2, 4, 6, 8, -1, 10, -1, 12, -1, 14, 16, -1, -1, 18, 20, -1, 22, 24, -1, 26, -1, -1, 28, -1, -1, -1, -1, -1, -1], "split_conditions": [66.0, 29.0, 361937.0, 88.0, -0.2078726, 316304.0, -0.097176276, 16.0, 0.09357014, 307786.0, 73.0, -0.016711278, -0.1695432, 306613.0, 836.0, 0.24845459, 14.0, 76.0, 0.26964897, 38.0, 0.01324047, -0.19918768, 322991.0, -0.19247355, 0.009346185, -0.030306607, -0.23882844, 0.18127106, -0.0052689025], "split_indices": [2, 2, 0, 1, 0, 0, 0, 2, 0, 0, 2, 0, 0, 0, 1, 0, 1, 2, 0, 1, 0, 0, 0, 0, 0, 0, 0, 0, 0], "split_type": [0, 0, 0, 0, 0, 0, 0, 0, 0, 0, 0, 0, 0, 0, 0, 0, 0, 0, 0, 0, 0, 0, 0, 0, 0, 0, 0, 0, 0], "sum_hessian": [101.20391, 6.7074986, 94.49641, 4.6690316, 2.0384672, 92.82026, 1.676152, 3.1263843, 1.5426474, 74.53171, 18.28855, 2.0316317, 1.0947526, 69.42835, 5.1033554, 2.1148448, 16.173704, 68.07028, 1.3580703, 4.101289, 1.0020667, 1.6116697, 14.562036, 1.5607882, 66.50949, 1.0451282, 3.0561607, 3.2804062, 11.281629], "tree_param": {"num_deleted": "0", "num_feature": "5", "num_nodes": "29", "size_leaf_vector": "1"}}, {"base_weights": [-0.013063461, -0.14026356, 0.038909372, -0.3914411, -0.00084922474, 0.23732565, -0.038852498, -0.21664448, -0.24891357, 0.25089648, -0.088966265, -0.026661996, 0.229232, -0.47490928, 0.028980318, 0.074948974, -0.44511336, 0.12283127, -0.2836104, -0.14030911, 0.17457798, -0.05166539, -0.24340339, 0.5684451, -0.057315554, -0.17412882, 0.15459552, 0.09581122, -0.71298325, -0.20196371, 0.6239453, -0.6118813, -0.009785364, 0.19290943, -0.25944573, 0.072391696, -0.080726646, -0.10827785, 0.8589247, -0.32279584, 0.058056984, -0.025496988, -0.26369232, -0.1394631, 0.107262634, 0.2477135, 0.04700633, -0.017305806, -0.22671536, 0.08083984, -0.093137115, 0.110384874, -0.13968529, 0.29006365, 0.07598132, 0.119973674, -0.13323587, 0.0022369863, 0.20732382], "categories": [], "categories_nodes": [], "categories_segments": [], "categories_sizes": [], "default_left": [0, 0, 0, 0, 0, 0, 0, 0, 0, 0, 0, 0, 0, 0, 0, 0, 0, 0, 0, 0, 0, 0, 0, 0, 0, 0, 0, 0, 0, 0, 0, 0, 0, 0, 0, 0, 0, 0, 0, 0, 0, 0, 0, 0, 0, 0, 0, 0, 0, 0, 0, 0, 0, 0, 0, 0, 0, 0, 0], "id": 15, "left_children": [1, 3, 5, 7, 9, 11, 13, -1, 15, -1, 17, 19, -1, 21, 23, 25, 27, 29, 31, 33, -1, 35, -1, 37, 39, -1, -1, -1, 41, 43, 45, 47, 49, -1, 51, -1, -1, -1, 53, 55, 57, -1, -1, -1, -1, -1, -1, -1, -1, -1, -1, -1, -1, -1, -1, -1, -1, -1, -1], "loss_changes": [0.6753607, 1.0365684, 1.1312592, 0.31831264, 1.5530239, 2.887377, 1.5845582, 0.0, 0.59953743, 0.0, 0.81971925, 1.0983813, 0.0, 0.9842377, 2.215884, 1.5162857, 1.3935117, 1.7235786, 0.9129853, 1.3980446, 0.0, 0.33625704, 0.0, 2.0807483, 1.2849345, 0.0, 0.0, 0.0, 0.39699817, 1.1534033, 0.2575854, 0.3257364, 0.6369916, 0.0, 1.7447187, 0.0, 0.0, 0.0, 0.1011982, 1.2890182, 0.94501984, 0.0, 0.0, 0.0, 0.0, 0.0, 0.0, 0.0, 0.0, 0.0, 0.0, 0.0, 0.0, 0.0, 0.0, 0.0, 0.0, 0.0, 0.0], "parents": [2147483647, 0, 0, 1, 1, 2, 2, 3, 3, 4, 4, 5, 5, 6, 6, 8, 8, 10, 10, 11, 11, 13, 13, 14, 14, 15, 15, 16, 16, 17, 17, 18, 18, 19, 19, 21, 21, 23, 23, 24, 24, 28, 28, 29, 29, 30, 30, 31, 31, 32, 32, 34, 34, 38, 38, 39, 39, 40, 40], "right_children": [2, 4, 6, 8, 10, 12, 14, -1, 16, -1, 18, 20, -1, 22, 24, 26, 28, 30, 32, 34, -1, 36, -1, 38, 40, -1, -1, -1, 42, 44, 46, 48, 50, -1, 52, -1, -1, -1, 54, 56, 58, -1, -1, -1, -1, -1, -1, -1, -1, -1, -1, -1, -1, -1, -1, -1, -1, -1, -1], "split_conditions": [137.0, 266890.0, 311.0, 194807.0, 270159.0, 276.0, 389.0, -0.21664448, 241583.0, 0.25089648, 16.0, 301.0, 0.229232, 355.0, 299.0, 76.0, 38.0, 11.0, 37.0, 50.0, 0.17457798, 192.0, -0.24340339, 248541.0, 709.0, -0.17412882, 0.15459552, 0.09581122, 77.0, 358117.0, 322991.0, 288258.0, 95.0, 0.19290943, 242911.0, 0.072391696, -0.080726646, -0.10827785, 302013.0, 419.0, 2264.0, -0.025496988, -0.26369232, -0.1394631, 0.107262634, 0.2477135, 0.04700633, -0.017305806, -0.22671536, 0.08083984, -0.093137115, 0.110384874, -0.13968529, 0.29006365, 0.07598132, 0.119973674, -0.13323587, 0.0022369863, 0.20732382], "split_indices": [2, 0, 2, 0, 0, 1, 2, 0, 0, 0, 1, 2, 0, 2, 1, 1, 1, 1, 1, 1, 0, 1, 0, 0, 2, 0, 0, 0, 2, 0, 0, 0, 2, 0, 0, 0, 0, 0, 0, 2, 1, 0, 0, 0, 0, 0, 0, 0, 0, 0, 0, 0, 0, 0, 0, 0, 0, 0, 0], "split_type": [0, 0, 0, 0, 0, 0, 0, 0, 0, 0, 0, 0, 0, 0, 0, 0, 0, 0, 0, 0, 0, 0, 0, 0, 0, 0, 0, 0, 0, 0, 0, 0, 0, 0, 0, 0, 0, 0, 0, 0, 0, 0, 0, 0, 0, 0, 0, 0, 0, 0, 0, 0, 0, 0, 0, 0, 0, 0, 0], "sum_hessian": [100.33237, 28.61072, 71.72165, 9.566809, 19.043911, 19.616488, 52.105156, 1.6564993, 7.9103093, 1.0049721, 18.038939, 13.70023, 5.916259, 6.2064457, 45.898712, 3.2174063, 4.692903, 8.8155, 9.223439, 12.19281, 1.5074193, 3.2594924, 2.9469533, 5.5591865, 40.339527, 1.16522, 2.0521863, 1.1678035, 3.5250995, 5.710945, 3.104555, 3.6332285, 5.5902104, 1.0290734, 11.163737, 1.3417225, 1.9177699, 1.266043, 4.2931437, 11.675508, 28.664019, 1.0530638, 2.4720356, 4.0003157, 1.7106297, 1.6324866, 1.4720683, 1.0373644, 2.595864, 2.9521558, 2.6380546, 2.5671246, 8.596612, 3.137484, 1.1556596, 1.3482046, 10.327303, 27.479256, 1.1847626], "tree_param": {"num_deleted": "0", "num_feature": "5", "num_nodes": "59", "size_leaf_vector": "1"}}, {"base_weights": [-0.007693341, -0.32175267, 0.016851028, -0.11714731, -0.19098999, -0.0807542, 0.05082224, -0.34853926, 0.07227842, -0.007859536, -0.2191073, 0.5644102, 0.0182783, -0.17835546, 0.0073600886, 0.07344606, -0.42339048, 0.021452881, 0.22394414, -0.15408109, 0.036227394, -0.08483652, 0.6864637, -0.272603, 0.12426958, 0.31451052, -0.0005544692, -0.048421334, 0.13274221, 0.071663015, 0.24733265, -0.029740354, 0.18052508, -0.094681524, 0.020453718], "categories": [], "categories_nodes": [], "categories_segments": [], "categories_sizes": [], "default_left": [0, 0, 0, 0, 0, 0, 0, 0, 0, 0, 0, 0, 0, 0, 0, 0, 0, 0, 0, 0, 0, 0, 0, 0, 0, 0, 0, 0, 0, 0, 0, 0, 0, 0, 0], "id": 16, "left_children": [1, 3, 5, 7, -1, 9, 11, 13, -1, 15, -1, 17, 19, -1, -1, 21, 23, -1, -1, -1, 25, 27, 29, -1, -1, 31, 33, -1, -1, -1, -1, -1, -1, -1, -1], "loss_changes": [0.7689071, 0.3911779, 0.31186277, 0.5485846, 0.0, 1.1473078, 1.1507583, 0.36468238, 0.0, 0.8049201, 0.0, 0.31510508, 0.65213627, 0.0, 0.0, 1.9996443, 1.960094, 0.0, 0.0, 0.0, 0.66681224, 0.7494081, 0.06342924, 0.0, 0.0, 0.96325314, 1.2888098, 0.0, 0.0, 0.0, 0.0, 0.0, 0.0, 0.0, 0.0], "parents": [2147483647, 0, 0, 1, 1, 2, 2, 3, 3, 5, 5, 6, 6, 7, 7, 9, 9, 11, 11, 12, 12, 15, 15, 16, 16, 20, 20, 21, 21, 22, 22, 25, 25, 26, 26], "right_children": [2, 4, 6, 8, -1, 10, 12, 14, -1, 16, -1, 18, 20, -1, -1, 22, 24, -1, -1, -1, 26, 28, 30, -1, -1, 32, 34, -1, -1, -1, -1, -1, -1, -1, -1], "split_conditions": [66.0, 29.0, 250384.0, 15.0, -0.19098999, 248154.0, 254168.0, 30.0, 0.07227842, 1251.0, -0.2191073, 273.0, 254585.0, -0.17835546, 0.0073600886, 827.0, 1335.0, 0.021452881, 0.22394414, -0.15408109, 260459.0, 245254.0, 580.0, -0.272603, 0.12426958, 257455.0, 272014.0, -0.048421334, 0.13274221, 0.071663015, 0.24733265, -0.029740354, 0.18052508, -0.094681524, 0.020453718], "split_indices": [2, 2, 0, 2, 0, 0, 0, 1, 0, 2, 0, 2, 0, 0, 0, 2, 1, 0, 0, 0, 0, 0, 1, 0, 0, 0, 0, 0, 0, 0, 0, 0, 0, 0, 0], "split_type": [0, 0, 0, 0, 0, 0, 0, 0, 0, 0, 0, 0, 0, 0, 0, 0, 0, 0, 0, 0, 0, 0, 0, 0, 0, 0, 0, 0, 0, 0, 0, 0, 0, 0, 0], "sum_hessian": [98.04603, 6.229317, 91.81671, 4.607476, 1.6218411, 23.350243, 68.46647, 2.8150158, 1.7924603, 21.904364, 1.4458793, 3.1060302, 65.36044, 1.3387583, 1.4762574, 19.008316, 2.896048, 1.2135272, 1.8925029, 1.232208, 64.128235, 15.792313, 3.2160034, 1.7799722, 1.1160759, 6.605073, 57.52316, 14.395875, 1.3964375, 1.4013708, 1.8146325, 2.9753032, 3.6297698, 9.658811, 47.86435], "tree_param": {"num_deleted": "0", "num_feature": "5", "num_nodes": "35", "size_leaf_vector": "1"}}, {"base_weights": [-0.007103725, -0.28726518, 0.013725643, -0.10568033, -0.17668618, 0.028476505, -0.22028328, -0.30986902, 0.056374807, 0.008351755, 0.40862983, 0.1343641, -0.5749166, -0.16458422, 0.0060247686, 0.024349585, -0.13549991, 0.0061236923, 0.21725899, -0.21450882, -0.021324895, 0.003142636, 0.42763138, 0.008130054, -0.22184159, 0.18780929, 0.014074184], "categories": [], "categories_nodes": [], "categories_segments": [], "categories_sizes": [], "default_left": [0, 0, 0, 0, 0, 0, 0, 0, 0, 0, 0, 0, 0, 0, 0, 0, 0, 0, 0, 0, 0, 0, 0, 0, 0, 0, 0], "id": 17, "left_children": [1, 3, 5, 7, -1, 9, 11, 13, -1, 15, 17, -1, 19, -1, -1, 21, -1, -1, -1, -1, -1, 23, 25, -1, -1, -1, -1], "loss_changes": [0.5772492, 0.3127038, 0.32521838, 0.3874274, 0.0, 0.66834134, 1.5828922, 0.29588917, 0.0, 0.6322078, 0.52348554, 0.0, 0.23804033, 0.0, 0.0, 0.7044291, 0.0, 0.0, 0.0, 0.0, 0.0, 1.432809, 0.2814821, 0.0, 0.0, 0.0, 0.0], "parents": [2147483647, 0, 0, 1, 1, 2, 2, 3, 3, 5, 5, 6, 6, 7, 7, 9, 9, 10, 10, 12, 12, 15, 15, 21, 21, 22, 22], "right_children": [2, 4, 6, 8, -1, 10, 12, 14, -1, 16, 18, -1, 20, -1, -1, 22, -1, -1, -1, -1, -1, 24, 26, -1, -1, -1, -1], "split_conditions": [66.0, 29.0, 347774.0, 15.0, -0.17668618, 342013.0, 7.0, 30.0, 0.056374807, 337038.0, 362.0, 0.1343641, 302.0, -0.16458422, 0.0060247686, 328374.0, -0.13549991, 0.0061236923, 0.21725899, -0.21450882, -0.021324895, 324974.0, 331009.0, 0.008130054, -0.22184159, 0.18780929, 0.014074184], "split_indices": [2, 2, 0, 2, 0, 0, 1, 1, 0, 0, 2, 0, 1, 0, 0, 0, 0, 0, 0, 0, 0, 0, 0, 0, 0, 0, 0], "split_type": [0, 0, 0, 0, 0, 0, 0, 0, 0, 0, 0, 0, 0, 0, 0, 0, 0, 0, 0, 0, 0, 0, 0, 0, 0, 0, 0], "sum_hessian": [97.24316, 5.84429, 91.398865, 4.4912972, 1.3529922, 86.80536, 4.5935063, 2.6163018, 1.8749957, 83.41164, 3.393718, 1.501533, 3.0919733, 1.1334523, 1.4828494, 81.5236, 1.8880394, 1.9990838, 1.3946344, 2.0912368, 1.0007365, 78.408226, 3.1153772, 76.89114, 1.5170838, 1.6244816, 1.4908955], "tree_param": {"num_deleted": "0", "num_feature": "5", "num_nodes": "27", "size_leaf_vector": "1"}}, {"base_weights": [-0.009488194, 0.0043026707, -0.34685376, -0.30913267, 0.022369491, 0.032806657, -0.19568634, -0.20135985, 0.07847136, 0.41596428, 0.001296573, 0.13354363, -0.076965526, 0.17508475, 0.16022632, -0.21836554, 0.02889848, -0.04754572, 0.12841009, 0.51008314, 0.0067651914, 0.26756305, 0.005524109, -0.06929866, 0.006558091], "categories": [], "categories_nodes": [], "categories_segments": [], "categories_sizes": [], "default_left": [0, 0, 0, 0, 0, 0, 0, 0, 0, 0, 0, 0, 0, 0, 0, 0, 0, 0, 0, 0, 0, 0, 0, 0, 0], "id": 18, "left_children": [1, 3, 5, 7, 9, -1, -1, -1, 11, 13, 15, -1, -1, -1, 17, -1, 19, -1, -1, 21, 23, -1, -1, -1, -1], "loss_changes": [0.4565302, 0.5445985, 0.6082529, 0.7883617, 0.75181144, 0.0, 0.0, 0.0, 0.535211, 0.10399479, 1.7741119, 0.0, 0.0, 0.0, 0.3411829, 0.0, 0.90060836, 0.0, 0.0, 0.68177426, 0.2999496, 0.0, 0.0, 0.0, 0.0], "parents": [2147483647, 0, 0, 1, 1, 2, 2, 3, 3, 4, 4, 8, 8, 9, 9, 10, 10, 14, 14, 16, 16, 19, 19, 20, 20], "right_children": [2, 4, 6, 8, 10, -1, -1, -1, 12, 14, 16, -1, -1, -1, 18, -1, 20, -1, -1, 22, 24, -1, -1, -1, -1], "split_conditions": [360624.0, 11.0, 7.0, 317239.0, 16.0, 0.032806657, -0.19568634, -0.20135985, 338059.0, 300590.0, 25.0, 0.13354363, -0.076965526, 0.17508475, 327576.0, -0.21836554, 38.0, -0.04754572, 0.12841009, 84.0, 88.0, 0.26756305, 0.005524109, -0.06929866, 0.006558091], "split_indices": [0, 1, 1, 0, 1, 0, 0, 0, 0, 0, 1, 0, 0, 0, 0, 0, 1, 0, 0, 2, 2, 0, 0, 0, 0], "split_type": [0, 0, 0, 0, 0, 0, 0, 0, 0, 0, 0, 0, 0, 0, 0, 0, 0, 0, 0, 0, 0, 0, 0, 0, 0], "sum_hessian": [96.803696, 93.950424, 2.853269, 4.242264, 89.70816, 1.4016587, 1.4516104, 1.815094, 2.4271698, 3.6065538, 86.10161, 1.0019077, 1.4252622, 1.4040376, 2.202516, 2.215013, 83.8866, 1.1920689, 1.0104473, 2.7194269, 81.16717, 1.0725715, 1.6468554, 3.9917092, 77.17546], "tree_param": {"num_deleted": "0", "num_feature": "5", "num_nodes": "25", "size_leaf_vector": "1"}}, {"base_weights": [-0.009097162, -0.27582318, 0.004244795, -0.045384664, -0.16608742, -0.15206791, 0.028092878, 0.064614154, -0.08855444, 0.04887364, -0.56035334, 0.27888197, 0.0014933492, -0.16260014, 0.1925114, -0.014679581, -0.21553124, 0.01682127, -0.30394873, -0.0046228925, 0.41086844, 0.112822026, -0.049876582, -0.18268736, 0.022768736, -0.07164788, 0.09350708, 0.18209118, -0.020438977, -0.0023756446, 0.19065788, -0.20733671, -0.0050558755], "categories": [], "categories_nodes": [], "categories_segments": [], "categories_sizes": [], "default_left": [0, 0, 0, 0, 0, 0, 0, 0, 0, 0, 0, 0, 0, 0, 0, 0, 0, 0, 0, 0, 0, 0, 0, 0, 0, 0, 0, 0, 0, 0, 0, 0, 0], "id": 19, "left_children": [1, 3, 5, 7, -1, 9, 11, -1, -1, 13, 15, -1, 17, -1, 19, -1, -1, 21, 23, 25, 27, 29, 31, -1, -1, -1, -1, -1, -1, -1, -1, -1, -1], "loss_changes": [0.34791505, 0.27299038, 0.353862, 0.30033663, 0.0, 1.0586253, 1.970006, 0.0, 0.0, 0.89735174, 0.30651546, 0.0, 0.3836636, 0.0, 0.35721263, 0.0, 0.0, 0.5046794, 0.49992394, 0.46906155, 0.4102714, 2.0408773, 0.97690505, 0.0, 0.0, 0.0, 0.0, 0.0, 0.0, 0.0, 0.0, 0.0, 0.0], "parents": [2147483647, 0, 0, 1, 1, 2, 2, 3, 3, 5, 5, 6, 6, 9, 9, 10, 10, 12, 12, 14, 14, 17, 17, 18, 18, 19, 19, 20, 20, 21, 21, 22, 22], "right_children": [2, 4, 6, 8, -1, 10, 12, -1, -1, 14, 16, -1, 18, -1, 20, -1, -1, 22, 24, 26, 28, 30, 32, -1, -1, -1, -1, -1, -1, -1, -1, -1, -1], "split_conditions": [26.0, 16.0, 37.0, 32.0, -0.16608742, 16.0, 40.0, 0.064614154, -0.08855444, 297961.0, 82.0, 0.27888197, 345029.0, -0.16260014, 11.0, -0.014679581, -0.21553124, 302.0, 338.0, 358117.0, 331009.0, 245.0, 316.0, -0.18268736, 0.022768736, -0.07164788, 0.09350708, 0.18209118, -0.020438977, -0.0023756446, 0.19065788, -0.20733671, -0.0050558755], "split_indices": [2, 2, 1, 1, 0, 1, 1, 0, 0, 0, 2, 0, 0, 0, 1, 0, 0, 1, 1, 0, 0, 1, 1, 0, 0, 0, 0, 0, 0, 0, 0, 0, 0], "split_type": [0, 0, 0, 0, 0, 0, 0, 0, 0, 0, 0, 0, 0, 0, 0, 0, 0, 0, 0, 0, 0, 0, 0, 0, 0, 0, 0, 0, 0, 0, 0, 0, 0], "sum_hessian": [96.4371, 3.6568923, 92.78021, 2.6347322, 1.02216, 11.569722, 81.21049, 1.3564738, 1.2782584, 8.343624, 3.2260985, 1.3545262, 79.855965, 1.0892901, 7.2543335, 1.070956, 2.1551425, 76.939835, 2.916124, 4.326851, 2.9274826, 31.257784, 45.682053, 1.2828442, 1.63328, 2.6268542, 1.6999966, 1.887552, 1.0399307, 26.192385, 5.0653987, 1.2613506, 44.420704], "tree_param": {"num_deleted": "0", "num_feature": "5", "num_nodes": "33", "size_leaf_vector": "1"}}, {"base_weights": [-0.011409311, -0.0009570966, -0.10971741, -0.06278861, 0.05734933, -0.0104118455, -0.22786915, 0.4047355, -0.002010421, -0.05488025, 0.24457845, -0.0869805, 0.64552087, 0.03739075, -0.14253241, -0.004051832, -0.21720701, 0.2845827, 0.2791548, -0.022965377, 0.2198408, -0.08800175, 0.022550829, 0.18407574, -0.064756095, 0.018555436, -0.100486964], "categories": [], "categories_nodes": [], "categories_segments": [], "categories_sizes": [], "default_left": [0, 0, 0, 0, 0, 0, 0, 0, 0, 0, 0, 0, 0, 0, 0, 0, 0, 0, 0, 0, 0, 0, 0, 0, 0, 0, 0], "id": 20, "left_children": [1, 3, -1, 5, 7, 9, -1, 11, 13, 15, -1, -1, 17, 19, -1, 21, -1, 23, -1, 25, -1, -1, -1, -1, -1, -1, -1], "loss_changes": [0.35837245, 0.34641907, 0.0, 1.6937573, 1.0207783, 1.6742704, 0.0, 1.3954059, 0.8237753, 1.4612725, 0.0, 0.0, 0.31886148, 1.7310767, 0.0, 0.96205914, 0.0, 0.78181696, 0.0, 1.040837, 0.0, 0.0, 0.0, 0.0, 0.0, 0.0, 0.0], "parents": [2147483647, 0, 0, 1, 1, 3, 3, 4, 4, 5, 5, 7, 7, 8, 8, 9, 9, 12, 12, 13, 13, 15, 15, 17, 17, 19, 19], "right_children": [2, 4, -1, 6, 8, 10, -1, 12, 14, 16, -1, -1, 18, 20, -1, 22, -1, 24, -1, 26, -1, -1, -1, -1, -1, -1, -1], "split_conditions": [361937.0, 272014.0, -0.10971741, 267697.0, 282372.0, 266890.0, -0.22786915, 76.0, 1805.0, 264142.0, 0.24457845, -0.0869805, 427.0, 1352.0, -0.14253241, 137.0, -0.21720701, 166.0, 0.2791548, 604.0, 0.2198408, -0.08800175, 0.022550829, 0.18407574, -0.064756095, 0.018555436, -0.100486964], "split_indices": [0, 0, 0, 0, 0, 0, 0, 1, 1, 0, 0, 0, 1, 1, 0, 2, 0, 2, 0, 1, 0, 0, 0, 0, 0, 0, 0], "split_type": [0, 0, 0, 0, 0, 0, 0, 0, 0, 0, 0, 0, 0, 0, 0, 0, 0, 0, 0, 0, 0, 0, 0, 0, 0, 0, 0], "sum_hessian": [95.86353, 94.09058, 1.7729472, 45.62758, 48.463005, 43.381523, 2.2460573, 6.223483, 42.23952, 42.050343, 1.3311784, 1.5493774, 4.6741056, 39.842285, 2.3972344, 40.016712, 2.0336325, 2.944073, 1.7300324, 37.55021, 2.2920785, 8.021676, 31.995035, 1.6398687, 1.3042043, 30.154314, 7.3958945], "tree_param": {"num_deleted": "0", "num_feature": "5", "num_nodes": "27", "size_leaf_vector": "1"}}, {"base_weights": [-0.009913856, -0.031227548, 0.16291323, -0.0049728993, -0.48617232, 0.6308138, -0.09219998, -0.02783989, 0.43601388, -0.25874498, 0.04946686, 0.2735888, -0.023825789, -0.27099606, 0.14108974, 0.009319769, -0.45699173, 0.18551964, -0.011628617, 0.053945452, -0.4583188, -0.033387527, 0.37781966, -0.28245032, 0.19996881, -0.22715886, 0.010564555, -0.0005405187, -0.16059545, 0.21357757, -0.06759258], "categories": [], "categories_nodes": [], "categories_segments": [], "categories_sizes": [], "default_left": [0, 0, 0, 0, 0, 0, 0, 0, 0, 0, 0, 0, 0, 0, 0, 0, 0, 0, 0, 0, 0, 0, 0, 0, 0, 0, 0, 0, 0, 0, 0], "id": 21, "left_children": [1, 3, 5, 7, 9, 11, 13, 15, 17, -1, -1, -1, -1, 19, -1, 21, 23, -1, -1, -1, 25, 27, 29, -1, -1, -1, -1, -1, -1, -1, -1], "loss_changes": [0.35858387, 1.0280151, 1.3349628, 0.8448022, 1.2928833, 0.8515254, 0.9113801, 1.2711276, 0.38165236, 0.0, 0.0, 0.0, 0.0, 0.63546866, 0.0, 1.1786343, 4.084651, 0.0, 0.0, 0.0, 0.7506844, 1.0662394, 1.7273695, 0.0, 0.0, 0.0, 0.0, 0.0, 0.0, 0.0, 0.0], "parents": [2147483647, 0, 0, 1, 1, 2, 2, 3, 3, 4, 4, 5, 5, 6, 6, 7, 7, 8, 8, 13, 13, 15, 15, 16, 16, 20, 20, 21, 21, 22, 22], "right_children": [2, 4, 6, 8, 10, 12, 14, 16, 18, -1, -1, -1, -1, 20, -1, 22, 24, -1, -1, -1, 26, 28, 30, -1, -1, -1, -1, -1, -1, -1, -1], "split_conditions": [1615.0, 1251.0, 1885.0, 1058.0, 273961.0, 316450.0, 315905.0, 872.0, 242113.0, -0.25874498, 0.04946686, 0.2735888, -0.023825789, 1075.0, 0.14108974, 709.0, 303725.0, 0.18551964, -0.011628617, 0.053945452, 2500.0, 634.0, 618.0, -0.28245032, 0.19996881, -0.22715886, 0.010564555, -0.0005405187, -0.16059545, 0.21357757, -0.06759258], "split_indices": [2, 2, 2, 2, 0, 0, 0, 2, 0, 0, 0, 0, 0, 1, 0, 2, 0, 0, 0, 0, 2, 2, 1, 0, 0, 0, 0, 0, 0, 0, 0], "split_type": [0, 0, 0, 0, 0, 0, 0, 0, 0, 0, 0, 0, 0, 0, 0, 0, 0, 0, 0, 0, 0, 0, 0, 0, 0, 0, 0, 0, 0, 0, 0], "sum_hessian": [94.96538, 85.269, 9.6963825, 81.57242, 3.6965754, 2.9017076, 6.7946744, 78.44176, 3.130661, 2.136788, 1.5597874, 1.8753208, 1.0263869, 5.549073, 1.2456013, 73.09118, 5.35058, 2.0432436, 1.0874174, 1.6406698, 3.9084034, 66.314995, 6.776181, 3.851664, 1.4989159, 2.101519, 1.806884, 63.333122, 2.9818761, 4.244522, 2.5316591], "tree_param": {"num_deleted": "0", "num_feature": "5", "num_nodes": "31", "size_leaf_vector": "1"}}, {"base_weights": [-0.006646754, -0.17884758, 0.014598884, -0.34747928, 0.10209273, 0.028833097, -0.28968623, 0.035275675, -0.51071197, 0.009122462, 0.18733594, 0.057420094, -0.15706246, -0.10365576, 0.13427295, -0.2274436, -0.26860845, 0.06582265, -0.09640431, -0.16647163, -0.02403475, 0.02744248, 0.18631718, -0.35839352, 0.022452729, 0.065506846, -0.066937305, -0.0015107761, 0.13611566, -0.0036088168, -0.156954, 0.1198007, -0.029782223], "categories": [], "categories_nodes": [], "categories_segments": [], "categories_sizes": [], "default_left": [0, 0, 0, 0, 0, 0, 0, 0, 0, 0, 0, 0, 0, 0, 0, 0, 0, 0, 0, 0, 0, 0, 0, 0, 0, 0, 0, 0, 0, 0, 0, 0, 0], "id": 22, "left_children": [1, 3, 5, 7, -1, 9, 11, 13, 15, 17, -1, -1, -1, -1, -1, -1, 19, 21, 23, -1, 25, 27, -1, 29, 31, -1, -1, -1, -1, -1, -1, -1, -1], "loss_changes": [0.3503302, 1.0386977, 0.37880492, 0.54475915, 0.0, 0.9642335, 0.54040766, 0.6972362, 0.15427923, 0.49091375, 0.0, 0.0, 0.0, 0.0, 0.0, 0.0, 0.30656502, 1.1182349, 0.90209055, 0.0, 0.2180633, 0.7066545, 0.0, 0.50849426, 0.9889172, 0.0, 0.0, 0.0, 0.0, 0.0, 0.0, 0.0, 0.0], "parents": [2147483647, 0, 0, 1, 1, 2, 2, 3, 3, 5, 5, 6, 6, 7, 7, 8, 8, 9, 9, 16, 16, 17, 17, 18, 18, 20, 20, 21, 21, 23, 23, 24, 24], "right_children": [2, 4, 6, 8, -1, 10, 12, 14, 16, 18, -1, -1, -1, -1, -1, -1, 20, 22, 24, -1, 26, 28, -1, 30, 32, -1, -1, -1, -1, -1, -1, -1, -1], "split_conditions": [193366.0, 1288.0, 1658.0, 6961.0, 0.10209273, 1482.0, 1164.0, 276.0, 15211.0, 302954.0, 0.18733594, 0.057420094, -0.15706246, -0.10365576, 0.13427295, -0.2274436, 479.0, 300465.0, 315905.0, -0.16647163, 464.0, 1615.0, 0.18631718, 107.0, 322991.0, 0.065506846, -0.066937305, -0.0015107761, 0.13611566, -0.0036088168, -0.156954, 0.1198007, -0.029782223], "split_indices": [0, 1, 1, 0, 0, 1, 2, 1, 0, 0, 0, 0, 0, 0, 0, 0, 2, 0, 0, 0, 1, 2, 0, 1, 0, 0, 0, 0, 0, 0, 0, 0, 0], "split_type": [0, 0, 0, 0, 0, 0, 0, 0, 0, 0, 0, 0, 0, 0, 0, 0, 0, 0, 0, 0, 0, 0, 0, 0, 0, 0, 0, 0, 0, 0, 0, 0, 0], "sum_hessian": [94.043785, 9.513838, 84.529945, 7.430846, 2.0829916, 81.6172, 2.9127438, 2.4559422, 4.974904, 79.98558, 1.6316177, 1.0121318, 1.900612, 1.3609563, 1.094986, 1.4062271, 3.5686767, 52.274445, 27.71114, 1.0595291, 2.5091476, 49.876213, 2.398231, 8.019319, 19.69182, 1.0878819, 1.4212658, 47.26336, 2.6128542, 2.9312127, 5.0881057, 4.250646, 15.4411745], "tree_param": {"num_deleted": "0", "num_feature": "5", "num_nodes": "33", "size_leaf_vector": "1"}}, {"base_weights": [-0.004710165, -0.10795566, 0.031238906, 0.0028799041, -0.52030146, 0.6455131, -0.0059198844, -0.09767878, 0.4296512, -0.79528296, 0.031680893, 0.22094078, 0.064212315, -0.34323773, 0.022168761, -0.2097901, 0.18496302, 0.23346388, -0.08822538, -0.060098726, -0.28908527, -0.61407435, 0.105464704, 0.17023574, -0.0024326579, 0.03254602, -0.5675387, 0.50354207, -0.09458985, -0.23008664, -0.06881855, -0.15871531, 0.01723533, -0.109722696, 0.10102823, -0.20050721, -0.03190331, -0.02283333, 0.24778393, 0.22214785, -0.002393171], "categories": [], "categories_nodes": [], "categories_segments": [], "categories_sizes": [], "default_left": [0, 0, 0, 0, 0, 0, 0, 0, 0, 0, 0, 0, 0, 0, 0, 0, 0, 0, 0, 0, 0, 0, 0, 0, 0, 0, 0, 0, 0, 0, 0, 0, 0, 0, 0, 0, 0, 0, 0, 0, 0], "id": 23, "left_children": [1, 3, 5, 7, 9, 11, 13, 15, 17, 19, -1, -1, -1, 21, 23, 25, 27, -1, -1, -1, -1, 29, -1, -1, 31, 33, 35, 37, -1, -1, -1, -1, 39, -1, -1, -1, -1, -1, -1, -1, -1], "loss_changes": [0.35189933, 1.1201223, 1.6113527, 0.9125274, 0.9773774, 0.0003786087, 0.6462117, 0.5848355, 1.2514327, 0.1798811, 0.0, 0.0, 0.0, 1.2022247, 0.8486348, 1.1287364, 1.0234232, 0.0, 0.0, 0.0, 0.0, 0.06727767, 0.0, 0.0, 0.6453566, 1.1628298, 0.17191589, 0.75425875, 0.0, 0.0, 0.0, 0.0, 1.1033823, 0.0, 0.0, 0.0, 0.0, 0.0, 0.0, 0.0, 0.0], "parents": [2147483647, 0, 0, 1, 1, 2, 2, 3, 3, 4, 4, 5, 5, 6, 6, 7, 7, 8, 8, 9, 9, 13, 13, 14, 14, 15, 15, 16, 16, 21, 21, 24, 24, 25, 25, 26, 26, 27, 27, 32, 32], "right_children": [2, 4, 6, 8, 10, 12, 14, 16, 18, 20, -1, -1, -1, 22, 24, 26, 28, -1, -1, -1, -1, 30, -1, -1, 32, 34, 36, 38, -1, -1, -1, -1, 40, -1, -1, -1, -1, -1, -1, -1, -1], "split_conditions": [250384.0, 242911.0, 254168.0, 237287.0, 330.0, 251953.0, 257455.0, 827.0, 587.0, 143.0, 0.031680893, 0.22094078, 0.064212315, 665.0, 258232.0, 301.0, 1786.0, 0.23346388, -0.08822538, -0.060098726, -0.28908527, 389.0, 0.105464704, 0.17023574, 259152.0, 137.0, 751.0, 580.0, -0.09458985, -0.23008664, -0.06881855, -0.15871531, 260459.0, -0.109722696, 0.10102823, -0.20050721, -0.03190331, -0.02283333, 0.24778393, 0.22214785, -0.002393171], "split_indices": [0, 0, 0, 0, 1, 0, 0, 2, 1, 1, 0, 0, 0, 1, 0, 2, 2, 0, 0, 0, 0, 2, 0, 0, 0, 2, 2, 1, 0, 0, 0, 0, 0, 0, 0, 0, 0, 0, 0, 0, 0], "split_type": [0, 0, 0, 0, 0, 0, 0, 0, 0, 0, 0, 0, 0, 0, 0, 0, 0, 0, 0, 0, 0, 0, 0, 0, 0, 0, 0, 0, 0, 0, 0, 0, 0, 0, 0, 0, 0, 0, 0, 0, 0], "sum_hessian": [92.90258, 23.476168, 69.426414, 19.285406, 4.1907616, 3.0263238, 66.40009, 16.231867, 3.053539, 2.7235832, 1.4671782, 1.9156259, 1.1106979, 4.241686, 62.158405, 11.806508, 4.4253592, 2.0101495, 1.0433894, 1.0836494, 1.6399337, 3.1355696, 1.1061162, 1.7307593, 60.427647, 7.580537, 4.2259717, 2.6996207, 1.7257386, 1.5326881, 1.6028816, 1.2431339, 59.184513, 3.1951225, 4.385414, 3.099272, 1.1266996, 1.2379061, 1.4617146, 1.0380017, 58.14651], "tree_param": {"num_deleted": "0", "num_feature": "5", "num_nodes": "41", "size_leaf_vector": "1"}}, {"base_weights": [-0.0040580197, -0.10266376, 0.006180534, 0.16231307, -0.0088265175, -0.1775523, 0.00857652, 0.115903564, -0.00031865318, -0.121127404, 0.013675881, -0.035588626, 0.011092225], "categories": [], "categories_nodes": [], "categories_segments": [], "categories_sizes": [], "default_left": [0, 0, 0, 0, 0, 0, 0, 0, 0, 0, 0, 0, 0], "id": 24, "left_children": [1, -1, 3, -1, 5, -1, 7, -1, 9, -1, 11, -1, -1], "loss_changes": [0.323821, 0.0, 0.73657703, 0.0, 0.91485155, 0.0, 0.29600978, 0.0, 0.49686974, 0.0, 0.26663065, 0.0, 0.0], "parents": [2147483647, 0, 0, 2, 2, 4, 4, 6, 6, 8, 8, 10, 10], "right_children": [2, -1, 4, -1, 6, -1, 8, -1, 10, -1, 12, -1, -1], "split_conditions": [2501.0, -0.10266376, 6961.0, 0.16231307, 14711.0, -0.1775523, 16804.0, 0.115903564, 191255.0, -0.121127404, 31.0, -0.035588626, 0.011092225], "split_indices": [0, 0, 0, 0, 0, 0, 0, 0, 0, 0, 1, 0, 0], "split_type": [0, 0, 0, 0, 0, 0, 0, 0, 0, 0, 0, 0, 0], "sum_hessian": [91.91916, 1.7484424, 90.170715, 1.5042827, 88.666435, 1.6132562, 87.05318, 1.0264808, 86.026695, 1.9503452, 84.07635, 11.9759865, 72.100365], "tree_param": {"num_deleted": "0", "num_feature": "5", "num_nodes": "13", "size_leaf_vector": "1"}}, {"base_weights": [-0.0047768797, -0.020978486, 0.16184527, -0.00052755786, -0.3291059, 0.43662962, -0.03456903, -0.2470703, 0.020581823, -0.23901744, 0.1409945, 0.25136998, -0.072365634, 0.21072501, -0.30122474, 0.1476175, -0.4724996, -0.012653116, 0.31622437, 0.14365192, -0.08512311, -0.025130806, 0.107862025, -0.02990313, -0.10756234, -0.06683888, 0.13590482, -0.19475424, -0.043263443, 0.019051753, -0.4767443, 0.5301327, -0.12004537, -0.0064621055, 0.07805402, -0.28106695, 0.13261485, 0.21089768, 0.014759635], "categories": [], "categories_nodes": [], "categories_segments": [], "categories_sizes": [], "default_left": [0, 0, 0, 0, 0, 0, 0, 0, 0, 0, 0, 0, 0, 0, 0, 0, 0, 0, 0, 0, 0, 0, 0, 0, 0, 0, 0, 0, 0, 0, 0, 0, 0, 0, 0, 0, 0, 0, 0], "id": 25, "left_children": [1, 3, 5, 7, 9, 11, 13, 15, 17, -1, 19, -1, -1, 21, 23, 25, 27, 29, 31, -1, -1, -1, -1, -1, -1, -1, -1, -1, -1, 33, 35, 37, -1, -1, -1, -1, -1, -1, -1], "loss_changes": [0.25314504, 0.5367268, 0.46377835, 0.42612174, 1.2777352, 1.1646444, 0.44119, 0.6442939, 0.74528104, 0.0, 0.6371473, 0.0, 0.0, 0.18772215, 0.0009792149, 0.4526778, 0.15857643, 1.0211202, 1.3863158, 0.0, 0.0, 0.0, 0.0, 0.0, 0.0, 0.0, 0.0, 0.0, 0.0, 0.6451855, 2.2899287, 0.49170935, 0.0, 0.0, 0.0, 0.0, 0.0, 0.0, 0.0], "parents": [2147483647, 0, 0, 1, 1, 2, 2, 3, 3, 4, 4, 5, 5, 6, 6, 7, 7, 8, 8, 10, 10, 13, 13, 14, 14, 15, 15, 16, 16, 17, 17, 18, 18, 29, 29, 30, 30, 31, 31], "right_children": [2, 4, 6, 8, 10, 12, 14, 16, 18, -1, 20, -1, -1, 22, 24, 26, 28, 30, 32, -1, -1, -1, -1, -1, -1, -1, -1, -1, -1, 34, 36, 38, -1, -1, -1, -1, -1, -1, -1], "split_conditions": [1352.0, 1075.0, 970.0, 191255.0, 246573.0, 2159.0, 289690.0, 6961.0, 1058.0, -0.23901744, 297961.0, 0.25136998, -0.072365634, 1615.0, 1885.0, 237.0, 751.0, 902.0, 318016.0, 0.14365192, -0.08512311, -0.025130806, 0.107862025, -0.02990313, -0.10756234, -0.06683888, 0.13590482, -0.19475424, -0.043263443, 528.0, 303725.0, 903.0, -0.12004537, -0.0064621055, 0.07805402, -0.28106695, 0.13261485, 0.21089768, 0.014759635], "split_indices": [1, 1, 2, 0, 0, 1, 0, 0, 2, 0, 0, 0, 0, 2, 2, 1, 2, 2, 0, 0, 0, 0, 0, 0, 0, 0, 0, 0, 0, 1, 0, 1, 0, 0, 0, 0, 0, 0, 0], "split_type": [0, 0, 0, 0, 0, 0, 0, 0, 0, 0, 0, 0, 0, 0, 0, 0, 0, 0, 0, 0, 0, 0, 0, 0, 0, 0, 0, 0, 0, 0, 0, 0, 0, 0, 0, 0, 0, 0, 0], "sum_hessian": [91.51545, 84.2021, 7.313348, 79.90068, 4.3014283, 2.5386972, 4.7746506, 5.4574304, 74.443245, 1.8080878, 2.4933403, 1.4463658, 1.0923314, 2.5961895, 2.178461, 2.1094024, 3.348028, 67.78081, 6.662442, 1.3177775, 1.1755627, 1.0182456, 1.5779439, 1.0888149, 1.0896462, 1.0754625, 1.0339401, 1.5411336, 1.8068943, 64.344025, 3.4367805, 5.3306885, 1.3317535, 55.85237, 8.491652, 2.27682, 1.1599605, 3.5816364, 1.749052], "tree_param": {"num_deleted": "0", "num_feature": "5", "num_nodes": "39", "size_leaf_vector": "1"}}, {"base_weights": [-0.006190428, 0.051410846, -0.059953347, -0.029800922, 0.47275856, -0.40016752, 0.008174502, -0.0035562832, -0.1463819, 0.15684152, 0.6827276, -0.10044755, -0.56108415, 0.48282322, -0.066902064, -0.04799645, 0.4017974, 0.10994226, -0.05051751, 0.03803563, 0.27733782, -0.092149295, 0.032752156, -0.26694575, -0.060857113, 0.08638003, 0.25241014, -0.45922166, -0.0063372753, 0.026254958, -0.25837716, -0.09313585, 0.23616748, 0.03195391, -0.06015289, 0.19089003, -0.13149709, 0.0265251, -0.21111302, 0.3909089, -0.061431017, -0.0053237197, 0.13115545, -0.13590543, 0.00076628075, 0.01501586, 0.14943816, -0.17980403, -0.0010129074], "categories": [], "categories_nodes": [], "categories_segments": [], "categories_sizes": [], "default_left": [0, 0, 0, 0, 0, 0, 0, 0, 0, 0, 0, 0, 0, 0, 0, 0, 0, 0, 0, 0, 0, 0, 0, 0, 0, 0, 0, 0, 0, 0, 0, 0, 0, 0, 0, 0, 0, 0, 0, 0, 0, 0, 0, 0, 0, 0, 0, 0, 0], "id": 26, "left_children": [1, 3, 5, 7, 9, 11, 13, 15, -1, 17, 19, 21, 23, 25, 27, 29, 31, -1, -1, -1, -1, -1, -1, -1, 33, 35, -1, 37, 39, 41, 43, -1, -1, -1, -1, -1, -1, -1, -1, 45, 47, -1, -1, -1, -1, -1, -1, -1, -1], "loss_changes": [0.28606725, 1.5420527, 1.1094705, 0.45971197, 0.37549818, 0.32864332, 1.4841956, 0.6913172, 0.0, 0.34826642, 0.43004405, 0.20715304, 0.76410687, 0.7355554, 0.8538409, 0.5459219, 1.2855433, 0.0, 0.0, 0.0, 0.0, 0.0, 0.0, 0.0, 0.09256927, 1.3796287, 0.0, 0.70597017, 0.729817, 0.48542392, 0.46311003, 0.0, 0.0, 0.0, 0.0, 0.0, 0.0, 0.0, 0.0, 0.123579025, 0.9094025, 0.0, 0.0, 0.0, 0.0, 0.0, 0.0, 0.0, 0.0], "parents": [2147483647, 0, 0, 1, 1, 2, 2, 3, 3, 4, 4, 5, 5, 6, 6, 7, 7, 9, 9, 10, 10, 11, 11, 12, 12, 13, 13, 14, 14, 15, 15, 16, 16, 24, 24, 25, 25, 27, 27, 28, 28, 29, 29, 30, 30, 39, 39, 40, 40], "right_children": [2, 4, 6, 8, 10, 12, 14, 16, -1, 18, 20, 22, 24, 26, 28, 30, 32, -1, -1, -1, -1, -1, -1, -1, 34, 36, -1, 38, 40, 42, 44, -1, -1, -1, -1, -1, -1, -1, -1, 46, 48, -1, -1, -1, -1, -1, -1, -1, -1], "split_conditions": [311.0, 245.0, 407.0, 231.0, 258232.0, 355.0, 299.0, 330.0, -0.1463819, 242911.0, 273.0, 325.0, 300465.0, 250.0, 537.0, 144.0, 137.0, 0.10994226, -0.05051751, 0.03803563, 0.27733782, -0.092149295, 0.032752156, -0.26694575, 358.0, 192.0, 0.25241014, 379.0, 634.0, 137.0, 273330.0, -0.09313585, 0.23616748, 0.03195391, -0.06015289, 0.19089003, -0.13149709, 0.0265251, -0.21111302, 241583.0, 692.0, -0.0053237197, 0.13115545, -0.13590543, 0.00076628075, 0.01501586, 0.14943816, -0.17980403, -0.0010129074], "split_indices": [2, 2, 2, 2, 0, 2, 1, 1, 0, 0, 2, 2, 0, 1, 2, 2, 2, 0, 0, 0, 0, 0, 0, 0, 1, 1, 0, 1, 2, 2, 0, 0, 0, 0, 0, 0, 0, 0, 0, 0, 2, 0, 0, 0, 0, 0, 0, 0, 0], "split_type": [0, 0, 0, 0, 0, 0, 0, 0, 0, 0, 0, 0, 0, 0, 0, 0, 0, 0, 0, 0, 0, 0, 0, 0, 0, 0, 0, 0, 0, 0, 0, 0, 0, 0, 0, 0, 0, 0, 0, 0, 0, 0, 0, 0, 0, 0, 0, 0, 0], "sum_hessian": [90.37943, 43.653294, 46.726135, 37.37819, 6.275107, 6.9826546, 39.74348, 36.30614, 1.0720476, 3.2029536, 3.0721536, 3.0066855, 3.975969, 4.6860814, 35.0574, 33.513542, 2.7925985, 1.8704987, 1.3324549, 1.3929931, 1.6791605, 1.2795433, 1.7271423, 1.9292746, 2.0466945, 2.8147366, 1.8713447, 3.8080075, 31.249393, 25.417822, 8.09572, 1.0488678, 1.7437307, 1.038899, 1.0077955, 1.270497, 1.5442398, 1.3723618, 2.4356456, 3.0636935, 28.1857, 23.823694, 1.5941284, 4.2152276, 3.8804927, 1.0840948, 1.9795988, 1.8373716, 26.348328], "tree_param": {"num_deleted": "0", "num_feature": "5", "num_nodes": "49", "size_leaf_vector": "1"}}, {"base_weights": [-0.0042824, 0.0045389174, -0.09077532, -0.0041196025, 0.090639114, -0.4365487, 0.012943356, -0.17664352, -0.013030811, 0.13839461, -0.0013107151, -0.22537802, 0.014832137, 0.015994186, -0.18340896, 0.1437557, -0.0024199947], "categories": [], "categories_nodes": [], "categories_segments": [], "categories_sizes": [], "default_left": [0, 0, 0, 0, 0, 0, 0, 0, 0, 0, 0, 0, 0, 0, 0, 0, 0], "id": 27, "left_children": [1, 3, -1, 5, -1, 7, 9, -1, -1, -1, 11, 13, 15, -1, -1, -1, -1], "loss_changes": [0.23829255, 0.2291128, 0.0, 0.64699364, 0.0, 0.1736471, 0.54124266, 0.0, 0.0, 0.0, 0.3034986, 0.63912666, 0.83691084, 0.0, 0.0, 0.0, 0.0], "parents": [2147483647, 0, 0, 1, 1, 3, 3, 5, 5, 6, 6, 10, 10, 11, 11, 12, 12], "right_children": [2, 4, -1, 6, -1, 8, 10, -1, -1, -1, 12, 14, 16, -1, -1, -1, -1], "split_conditions": [361937.0, 358117.0, -0.09077532, 9.0, 0.090639114, 329949.0, 12.0, -0.17664352, -0.013030811, 0.13839461, 25.0, 16.0, 38.0, 0.015994186, -0.18340896, 0.1437557, -0.0024199947], "split_indices": [0, 0, 0, 1, 0, 0, 1, 0, 0, 0, 1, 1, 1, 0, 0, 0, 0], "split_type": [0, 0, 0, 0, 0, 0, 0, 0, 0, 0, 0, 0, 0, 0, 0, 0, 0], "sum_hessian": [89.034836, 87.43404, 1.6007949, 85.92032, 1.5137228, 2.3283372, 83.59198, 1.3194572, 1.0088799, 1.609215, 81.982765, 4.63844, 77.34432, 3.1940928, 1.4443476, 2.6984055, 74.64592], "tree_param": {"num_deleted": "0", "num_feature": "5", "num_nodes": "17", "size_leaf_vector": "1"}}, {"base_weights": [-0.004772252, -0.021339476, 0.13944407, 0.0032273498, -0.36170283, 0.17014173, -0.04951006, -0.0124571705, 0.36423147, 0.032772884, -0.55176544, -0.2047264, 0.1189212, 0.009687863, -0.38566476, 0.13372485, 0.032740727, -0.23641403, -0.039716817, 0.07102096, -0.1571131, -0.034549806, 0.20811307, -0.25269276, 0.11357699, -0.114760615, 0.1697343, 0.003809479, -0.22510429, 0.1897399, -0.005651185], "categories": [], "categories_nodes": [], "categories_segments": [], "categories_sizes": [], "default_left": [0, 0, 0, 0, 0, 0, 0, 0, 0, 0, 0, 0, 0, 0, 0, 0, 0, 0, 0, 0, 0, 0, 0, 0, 0, 0, 0, 0, 0, 0, 0], "id": 28, "left_children": [1, 3, 5, 7, 9, -1, 11, 13, 15, -1, 17, 19, -1, 21, 23, -1, -1, -1, -1, 25, -1, 27, 29, -1, -1, -1, -1, -1, -1, -1, -1], "loss_changes": [0.21805152, 0.68355674, 0.78839934, 0.44112912, 0.5528212, 0.0, 0.59644854, 0.6224568, 0.018803775, 0.0, 0.30053318, 0.58096576, 0.0, 0.6360828, 1.7908843, 0.0, 0.0, 0.0, 0.0, 1.1580989, 0.0, 2.019856, 1.2834924, 0.0, 0.0, 0.0, 0.0, 0.0, 0.0, 0.0, 0.0], "parents": [2147483647, 0, 0, 1, 1, 2, 2, 3, 3, 4, 4, 6, 6, 7, 7, 8, 8, 10, 10, 11, 11, 13, 13, 14, 14, 19, 19, 21, 21, 22, 22], "right_children": [2, 4, 6, 8, 10, -1, 12, 14, 16, -1, 18, 20, -1, 22, 24, -1, -1, -1, -1, 26, -1, 28, 30, -1, -1, -1, -1, -1, -1, -1, -1], "split_conditions": [1640.0, 1164.0, 1885.0, 1058.0, 860.0, 0.17014173, 315905.0, 917.0, 560.0, 0.032772884, 1429.0, 289690.0, 0.1189212, 528.0, 299542.0, 0.13372485, 0.032740727, -0.23641403, -0.039716817, 2458.0, -0.1571131, 456.0, 604.0, -0.25269276, 0.11357699, -0.114760615, 0.1697343, 0.003809479, -0.22510429, 0.1897399, -0.005651185], "split_indices": [2, 2, 2, 2, 1, 0, 0, 2, 1, 0, 2, 0, 0, 1, 0, 0, 0, 0, 0, 2, 0, 1, 1, 0, 0, 0, 0, 0, 0, 0, 0], "split_type": [0, 0, 0, 0, 0, 0, 0, 0, 0, 0, 0, 0, 0, 0, 0, 0, 0, 0, 0, 0, 0, 0, 0, 0, 0, 0, 0, 0, 0, 0, 0], "sum_hessian": [89.01763, 80.60944, 8.408188, 76.10671, 4.50273, 1.9631531, 6.4450345, 73.86308, 2.2436311, 1.4169568, 3.0857732, 5.182102, 1.2629324, 70.64524, 3.2178383, 1.1339018, 1.1097294, 1.411452, 1.6743212, 3.1963515, 1.9857506, 58.44187, 12.203372, 1.9503608, 1.2674775, 1.7859563, 1.4103953, 55.744568, 2.697303, 3.629711, 8.573661], "tree_param": {"num_deleted": "0", "num_feature": "5", "num_nodes": "31", "size_leaf_vector": "1"}}, {"base_weights": [-0.005007229, 0.032453872, -0.09973658, 0.007783076, 0.20867635, -0.5237323, 0.015956912, 0.03361741, -0.3529203, -0.6378528, -0.004266817, 0.29311025, -0.09697682, -0.0016781805, 0.37729722, -0.20474342, 0.0038699827, -0.056275982, -0.21862401, 0.49876, -0.07397878, 0.09636009, -0.19627877, 0.01965912, -0.15023543, 0.14275974, 0.1895506, 0.17291717, 0.05867666, -0.40627173, 0.10255607, -0.0011079883, 0.13749786, 0.13148952, -0.034346577, -0.14540263, -0.002168091, 0.124358185, -0.074924484], "categories": [], "categories_nodes": [], "categories_segments": [], "categories_sizes": [], "default_left": [0, 0, 0, 0, 0, 0, 0, 0, 0, 0, 0, 0, 0, 0, 0, 0, 0, 0, 0, 0, 0, 0, 0, 0, 0, 0, 0, 0, 0, 0, 0, 0, 0, 0, 0, 0, 0, 0, 0], "id": 29, "left_children": [1, 3, 5, 7, -1, 9, 11, 13, 15, 17, -1, 19, 21, 23, 25, -1, -1, -1, -1, 27, -1, -1, 29, 31, -1, 33, -1, -1, -1, 35, 37, -1, -1, -1, -1, -1, -1, -1, -1], "loss_changes": [0.31995484, 1.0532787, 1.2610766, 0.60268015, 0.0, 0.3109678, 0.6867781, 0.72939956, 0.5301578, 0.046405554, 0.0, 0.82645446, 0.71481866, 0.60066336, 0.24409592, 0.0, 0.0, 0.0, 0.0, 0.0030623674, 0.0, 0.0, 0.87656033, 0.5565634, 0.0, 0.36996868, 0.0, 0.0, 0.0, 0.24726677, 0.7947628, 0.0, 0.0, 0.0, 0.0, 0.0, 0.0, 0.0, 0.0], "parents": [2147483647, 0, 0, 1, 1, 2, 2, 3, 3, 5, 5, 6, 6, 7, 7, 8, 8, 9, 9, 11, 11, 12, 12, 13, 13, 14, 14, 19, 19, 22, 22, 23, 23, 25, 25, 29, 29, 30, 30], "right_children": [2, 4, 6, 8, -1, 10, 12, 14, 16, 18, -1, 20, 22, 24, 26, -1, -1, -1, -1, 28, -1, -1, 30, 32, -1, 34, -1, -1, -1, 36, 38, -1, -1, -1, -1, -1, -1, -1, -1], "split_conditions": [307786.0, 306613.0, 316304.0, 302954.0, 0.20867635, 665.0, 324974.0, 297452.0, 305160.0, 38.0, -0.004266817, 580.0, 7.0, 295213.0, 376.0, -0.20474342, 0.0038699827, -0.056275982, -0.21862401, 395.0, -0.07397878, 0.09636009, 330.0, 292450.0, -0.15023543, 299542.0, 0.1895506, 0.17291717, 0.05867666, 292.0, 970.0, -0.0011079883, 0.13749786, 0.13148952, -0.034346577, -0.14540263, -0.002168091, 0.124358185, -0.074924484], "split_indices": [0, 0, 0, 0, 0, 1, 0, 0, 0, 1, 0, 1, 1, 0, 2, 0, 0, 0, 0, 2, 0, 0, 1, 0, 0, 0, 0, 0, 0, 2, 2, 0, 0, 0, 0, 0, 0, 0, 0], "split_type": [0, 0, 0, 0, 0, 0, 0, 0, 0, 0, 0, 0, 0, 0, 0, 0, 0, 0, 0, 0, 0, 0, 0, 0, 0, 0, 0, 0, 0, 0, 0, 0, 0, 0, 0, 0, 0, 0, 0], "sum_hessian": [88.249886, 63.71209, 24.537798, 62.402252, 1.3098353, 4.5041194, 20.033678, 59.077778, 3.3244743, 3.4740927, 1.0300264, 5.3380427, 14.695636, 54.478054, 4.599727, 1.2935444, 2.03093, 1.098112, 2.3759809, 3.9201682, 1.4178743, 2.3912213, 12.304414, 53.165775, 1.3122782, 3.20626, 1.3934671, 2.4035146, 1.5166535, 7.015243, 5.289171, 51.420013, 1.7457609, 1.1645626, 2.0416975, 5.683892, 1.3313513, 2.7114875, 2.5776834], "tree_param": {"num_deleted": "0", "num_feature": "5", "num_nodes": "39", "size_leaf_vector": "1"}}, {"base_weights": [-0.0033885331, 0.0071399054, -0.07975332, -0.004196925, 0.24144696, 0.008644979, -0.15398881, -0.05018864, 0.14248511, -0.006554286, 0.1697308, 0.009548469, -0.11963058, -0.0018973815, 0.08853229], "categories": [], "categories_nodes": [], "categories_segments": [], "categories_sizes": [], "default_left": [0, 0, 0, 0, 0, 0, 0, 0, 0, 0, 0, 0, 0, 0, 0], "id": 30, "left_children": [1, 3, -1, 5, 7, 9, -1, -1, -1, 11, -1, 13, -1, -1, -1], "loss_changes": [0.24616535, 0.22935687, 0.0, 0.5469352, 0.45973974, 0.69740075, 0.0, 0.0, 0.0, 0.51369816, 0.0, 0.3578021, 0.0, 0.0, 0.0], "parents": [2147483647, 0, 0, 1, 1, 3, 3, 4, 4, 5, 5, 9, 9, 11, 11], "right_children": [2, 4, -1, 6, 8, 10, -1, -1, -1, 12, -1, 14, -1, -1, -1], "split_conditions": [360624.0, 347241.0, -0.07975332, 345029.0, 37.0, 342784.0, -0.15398881, -0.05018864, 0.14248511, 337038.0, 0.1697308, 328374.0, -0.11963058, -0.0018973815, 0.08853229], "split_indices": [0, 0, 0, 0, 1, 0, 0, 0, 0, 0, 0, 0, 0, 0, 0], "split_type": [0, 0, 0, 0, 0, 0, 0, 0, 0, 0, 0, 0, 0, 0, 0], "sum_hessian": [87.39853, 84.96303, 2.4355032, 81.97862, 2.984407, 80.92044, 1.0581799, 1.1881386, 1.7962683, 79.73341, 1.1870228, 77.52616, 2.2072597, 74.37008, 3.1560788], "tree_param": {"num_deleted": "0", "num_feature": "5", "num_nodes": "15", "size_leaf_vector": "1"}}, {"base_weights": [-0.0029200679, 0.028644394, -0.0843863, 0.008006909, 0.17684348, -0.4489575, 0.010555262, 0.029781144, -0.30840707, -0.5549108, -0.0033324722, -0.06470058, 0.14179441, 0.005171841, 0.46215585, -0.18612316, 0.0034719063, -0.048258808, -0.19131885, 0.07350223, -0.52652323, 0.021881094, -0.13443275, 0.17646733, 0.028280867, 0.37294456, -0.07303591, -0.2556477, -0.014612179, 5.232742e-05, 0.1647804, -0.026134143, 0.1512939, -0.18464178, 0.015850384], "categories": [], "categories_nodes": [], "categories_segments": [], "categories_sizes": [], "default_left": [0, 0, 0, 0, 0, 0, 0, 0, 0, 0, 0, 0, 0, 0, 0, 0, 0, 0, 0, 0, 0, 0, 0, 0, 0, 0, 0, 0, 0, 0, 0, 0, 0, 0, 0], "id": 31, "left_children": [1, 3, 5, 7, -1, 9, 11, 13, 15, 17, -1, 19, -1, 21, 23, -1, -1, -1, -1, 25, 27, 29, -1, -1, -1, 31, 33, -1, -1, -1, -1, -1, -1, -1, -1], "loss_changes": [0.22956379, 0.74081075, 0.8673395, 0.444204, 0.0, 0.23377562, 0.7521403, 0.6359021, 0.421832, 0.032647967, 0.0, 1.2336944, 0.0, 0.44734147, 0.09384668, 0.0, 0.0, 0.0, 0.0, 0.6980717, 0.6485398, 0.6486282, 0.0, 0.0, 0.0, 0.35742152, 0.7904575, 0.0, 0.0, 0.0, 0.0, 0.0, 0.0, 0.0, 0.0], "parents": [2147483647, 0, 0, 1, 1, 2, 2, 3, 3, 5, 5, 6, 6, 7, 7, 8, 8, 9, 9, 11, 11, 13, 13, 14, 14, 19, 19, 20, 20, 21, 21, 25, 25, 26, 26], "right_children": [2, 4, 6, 8, -1, 10, 12, 14, 16, 18, -1, 20, -1, 22, 24, -1, -1, -1, -1, 26, 28, 30, -1, -1, -1, 32, 34, -1, -1, -1, -1, -1, -1, -1, -1], "split_conditions": [307786.0, 306613.0, 316304.0, 302954.0, 0.17684348, 665.0, 1751.0, 300465.0, 305160.0, 38.0, -0.0033324722, 580.0, 0.14179441, 298887.0, 301227.0, -0.18612316, 0.0034719063, -0.048258808, -0.19131885, 324974.0, 342013.0, 297452.0, -0.13443275, 0.17646733, 0.028280867, 85.0, 329431.0, -0.2556477, -0.014612179, 5.232742e-05, 0.1647804, -0.026134143, 0.1512939, -0.18464178, 0.015850384], "split_indices": [0, 0, 0, 0, 0, 1, 2, 0, 0, 1, 0, 1, 0, 0, 0, 0, 0, 0, 0, 0, 0, 0, 0, 0, 0, 2, 0, 0, 0, 0, 0, 0, 0, 0, 0], "split_type": [0, 0, 0, 0, 0, 0, 0, 0, 0, 0, 0, 0, 0, 0, 0, 0, 0, 0, 0, 0, 0, 0, 0, 0, 0, 0, 0, 0, 0, 0, 0, 0, 0, 0, 0], "sum_hessian": [87.33447, 63.413147, 23.921324, 62.140778, 1.2723707, 4.172054, 19.749271, 58.9874, 3.1533775, 3.1439152, 1.0281385, 17.722921, 2.026349, 56.768303, 2.219098, 1.1212121, 2.0321653, 1.057017, 2.086898, 14.288005, 3.4349163, 55.667946, 1.100355, 1.2066641, 1.012434, 4.1870246, 10.100981, 1.5768402, 1.8580761, 54.428078, 1.2398698, 1.0048536, 3.1821706, 1.1698418, 8.931139], "tree_param": {"num_deleted": "0", "num_feature": "5", "num_nodes": "35", "size_leaf_vector": "1"}}, {"base_weights": [-0.0050888215, 0.0085819885, -0.19767576, -0.007120094, 0.3017301, 0.15018816, -0.4215863, 0.0066233315, -0.11915993, 0.007097964, 0.15252945, -0.04127756, 0.108549364, -0.19214664, 0.0058287363, -0.014585988, 0.18130165, 0.060366467, -0.10951843, 0.16402973, 0.018838217, -0.0021210497, 0.13742869, -0.017763807, -0.1425306, -0.043482106, 0.1422837], "categories": [], "categories_nodes": [], "categories_segments": [], "categories_sizes": [], "default_left": [0, 0, 0, 0, 0, 0, 0, 0, 0, 0, 0, 0, 0, 0, 0, 0, 0, 0, 0, 0, 0, 0, 0, 0, 0, 0, 0], "id": 32, "left_children": [1, 3, 5, 7, 9, 11, 13, 15, -1, -1, -1, -1, -1, -1, -1, 17, 19, 21, 23, -1, 25, -1, -1, -1, -1, -1, -1], "loss_changes": [0.23308589, 0.38429147, 0.5202807, 0.4303123, 0.23189458, 0.23462364, 0.38237935, 0.29178458, 0.0, 0.0, 0.0, 0.0, 0.0, 0.0, 0.0, 0.5083905, 0.49584246, 1.0774817, 0.55060244, 0.0, 0.58617675, 0.0, 0.0, 0.0, 0.0, 0.0, 0.0], "parents": [2147483647, 0, 0, 1, 1, 2, 2, 3, 3, 4, 4, 5, 5, 6, 6, 7, 7, 15, 15, 16, 16, 17, 17, 18, 18, 20, 20], "right_children": [2, 4, 6, 8, 10, 12, 14, 16, -1, -1, -1, -1, -1, -1, -1, 18, 20, 22, 24, -1, 26, -1, -1, -1, -1, -1, -1], "split_conditions": [347774.0, 342013.0, 7.0, 337038.0, 362.0, 361145.0, 338.0, 1615.0, -0.11915993, 0.007097964, 0.15252945, -0.04127756, 0.108549364, -0.19214664, 0.0058287363, 302.0, 1885.0, 245.0, 316450.0, 0.16402973, 313047.0, -0.0021210497, 0.13742869, -0.017763807, -0.1425306, -0.043482106, 0.1422837], "split_indices": [0, 0, 1, 0, 2, 0, 1, 2, 0, 0, 0, 0, 0, 0, 0, 1, 2, 1, 0, 0, 0, 0, 0, 0, 0, 0, 0], "split_type": [0, 0, 0, 0, 0, 0, 0, 0, 0, 0, 0, 0, 0, 0, 0, 0, 0, 0, 0, 0, 0, 0, 0, 0, 0, 0, 0], "sum_hessian": [86.88655, 82.019806, 4.8667483, 78.775986, 3.2438176, 2.034786, 2.8319623, 77.04455, 1.7314403, 1.8583243, 1.3854932, 1.0105649, 1.0242211, 1.5902973, 1.241665, 69.51997, 7.5245686, 39.05154, 30.468435, 1.5876515, 5.9369173, 34.229935, 4.821605, 27.804407, 2.6640286, 4.8680887, 1.0688287], "tree_param": {"num_deleted": "0", "num_feature": "5", "num_nodes": "27", "size_leaf_vector": "1"}}, {"base_weights": [-0.0022055025, -0.01615861, 0.14779098, -0.230787, 0.005439172, 0.4186229, -0.042882755, -0.3262336, 0.017035842, 0.058288798, -0.09400465, 0.202003, -0.008054637, 0.068919756, -0.19302022, -0.46168378, 0.04660338, 0.015466381, 0.32935134, -0.16667055, -0.051379286, -0.089824036, 0.013118879, 0.037717782, -0.6646907, 0.061501876, -0.22310278, 0.23579787, -0.026464118, 0.18021561, -0.11308361, -0.052758098, -0.23925646, 0.0020906082, 0.11026706, -0.10334814, 0.07890911, -0.0064271726, -0.07624845], "categories": [], "categories_nodes": [], "categories_segments": [], "categories_sizes": [], "default_left": [0, 0, 0, 0, 0, 0, 0, 0, 0, 0, 0, 0, 0, 0, 0, 0, 0, 0, 0, 0, 0, 0, 0, 0, 0, 0, 0, 0, 0, 0, 0, 0, 0, 0, 0, 0, 0, 0, 0], "id": 33, "left_children": [1, 3, 5, 7, 9, 11, 13, 15, -1, 17, 19, -1, -1, -1, 21, 23, -1, 25, 27, -1, 29, -1, -1, -1, 31, 33, -1, -1, 35, -1, 37, -1, -1, -1, -1, -1, -1, -1, -1], "loss_changes": [0.18501669, 0.37550387, 0.40654364, 0.2217642, 0.39613026, 0.3813995, 0.26221415, 0.44402736, 0.0, 0.56545734, 0.4864779, 0.0, 0.0, 0.0, 0.113243744, 0.64480376, 0.0, 1.5658435, 1.1023638, 0.0, 1.0765265, 0.0, 0.0, 0.0, 0.097185254, 0.6973162, 0.0, 0.0, 0.5241379, 0.0, 0.30155268, 0.0, 0.0, 0.0, 0.0, 0.0, 0.0, 0.0, 0.0], "parents": [2147483647, 0, 0, 1, 1, 2, 2, 3, 3, 4, 4, 5, 5, 6, 6, 7, 7, 9, 9, 10, 10, 14, 14, 15, 15, 17, 17, 18, 18, 20, 20, 24, 24, 25, 25, 28, 28, 30, 30], "right_children": [2, 4, 6, 8, 10, 12, 14, 16, -1, 18, 20, -1, -1, -1, 22, 24, -1, 26, 28, -1, 30, -1, -1, -1, 32, 34, -1, -1, 36, -1, 38, -1, -1, -1, -1, -1, -1, -1, -1], "split_conditions": [1352.0, 193366.0, 970.0, 1.0, 302954.0, 1991.0, 265708.0, 611.0, 0.017035842, 1058.0, 66.0, 0.202003, -0.008054637, 0.068919756, 2159.0, 6303.0, 0.04660338, 902.0, 903.0, -0.16667055, 70.0, -0.089824036, 0.013118879, 0.037717782, 276.0, 528.0, -0.22310278, 0.23579787, 246573.0, 0.18021561, 331009.0, -0.052758098, -0.23925646, 0.0020906082, 0.11026706, -0.10334814, 0.07890911, -0.0064271726, -0.07624845], "split_indices": [1, 0, 2, 4, 0, 1, 0, 1, 0, 2, 2, 0, 0, 0, 1, 0, 0, 2, 1, 0, 2, 0, 0, 0, 1, 1, 0, 0, 0, 0, 0, 0, 0, 0, 0, 0, 0, 0, 0], "split_type": [0, 0, 0, 0, 0, 0, 0, 0, 0, 0, 0, 0, 0, 0, 0, 0, 0, 0, 0, 0, 0, 0, 0, 0, 0, 0, 0, 0, 0, 0, 0, 0, 0, 0, 0, 0, 0, 0, 0], "sum_hessian": [86.26031, 79.73537, 6.5249414, 6.4045315, 73.33083, 2.2018926, 4.323049, 4.707618, 1.6969131, 48.153442, 25.177393, 1.0754323, 1.1264602, 1.3470206, 2.9760284, 3.7064433, 1.001175, 42.496857, 5.656588, 1.1111953, 24.066198, 1.8706793, 1.1053491, 1.0497179, 2.6567254, 40.93357, 1.5632864, 1.947825, 3.708763, 1.3252605, 22.740938, 1.0642229, 1.5925025, 35.611115, 5.322455, 1.6767515, 2.0320115, 14.48303, 8.257908], "tree_param": {"num_deleted": "0", "num_feature": "5", "num_nodes": "39", "size_leaf_vector": "1"}}, {"base_weights": [-0.0020211693, -0.078655645, 0.00600151, 0.11760334, -0.005499716, -0.1412475, 0.0071964017, 0.061111957, -0.05165458, 0.0017441115, 0.50633687, -0.22483228, -0.007917938, 0.014908192, -0.21854253, 0.22972254, 0.07635595, -0.027008038, 0.029678773], "categories": [], "categories_nodes": [], "categories_segments": [], "categories_sizes": [], "default_left": [0, 0, 0, 0, 0, 0, 0, 0, 0, 0, 0, 0, 0, 0, 0, 0, 0, 0, 0], "id": 34, "left_children": [1, -1, 3, -1, 5, -1, 7, 9, 11, 13, 15, -1, 17, -1, -1, -1, -1, -1, -1], "loss_changes": [0.18129201, 0.0, 0.37732878, 0.0, 0.49401793, 0.0, 0.2627914, 1.1399779, 1.204584, 1.4047991, 0.13660073, 0.0, 0.34523, 0.0, 0.0, 0.0, 0.0, 0.0, 0.0], "parents": [2147483647, 0, 0, 2, 2, 4, 4, 6, 6, 7, 7, 8, 8, 9, 9, 10, 10, 12, 12], "right_children": [2, -1, 4, -1, 6, -1, 8, 10, 12, 14, 16, -1, 18, -1, -1, -1, -1, -1, -1], "split_conditions": [2501.0, -0.078655645, 6961.0, 0.11760334, 14711.0, -0.1412475, 299.0, 419.0, 316.0, 355.0, 192.0, -0.22483228, 689.0, 0.014908192, -0.21854253, 0.22972254, 0.07635595, -0.027008038, 0.029678773], "split_indices": [0, 0, 0, 0, 0, 0, 1, 2, 1, 2, 1, 0, 1, 0, 0, 0, 0, 0, 0], "split_type": [0, 0, 0, 0, 0, 0, 0, 0, 0, 0, 0, 0, 0, 0, 0, 0, 0, 0, 0], "sum_hessian": [85.104454, 1.5981497, 83.50631, 1.4588661, 82.04744, 1.2207721, 80.82667, 42.162045, 38.664623, 38.087273, 4.074773, 1.3288283, 37.335796, 36.614902, 1.4723718, 1.0018595, 3.0729132, 21.200937, 16.13486], "tree_param": {"num_deleted": "0", "num_feature": "5", "num_nodes": "19", "size_leaf_vector": "1"}}, {"base_weights": [-0.0045358078, -0.20552132, 0.005159635, 0.02091629, -0.12869686, 0.059063535, -0.044828653, -0.009441568, 0.38398466, -0.2882729, 0.03611538, 0.016651137, -0.13006528, 0.042576477, 0.53971404, 0.05312306, -0.41707268, 0.45502564, -0.034443937, -0.09830717, 0.1505396, 0.028896201, -0.008897365, 0.20937596, 0.019409312, -0.22118431, -0.2453837, -0.030189369, 0.29882094, -0.2147741, 0.014510707, 0.007889055, -0.23095575, 0.13910119, 0.0051567717, 0.060741313, -0.11721212, 0.09613366, -0.10412986, 0.15659079, -0.012958046], "categories": [], "categories_nodes": [], "categories_segments": [], "categories_sizes": [], "default_left": [0, 0, 0, 0, 0, 0, 0, 0, 0, 0, 0, 0, 0, 0, 0, 0, 0, 0, 0, 0, 0, 0, 0, 0, 0, 0, 0, 0, 0, 0, 0, 0, 0, 0, 0, 0, 0, 0, 0, 0, 0], "id": 35, "left_children": [1, 3, 5, -1, -1, 7, 9, 11, 13, 15, 17, 19, -1, 21, 23, -1, 25, 27, 29, 31, 33, -1, -1, -1, -1, -1, 35, 37, -1, -1, 39, -1, -1, -1, -1, -1, -1, -1, -1, -1, -1], "loss_changes": [0.16795777, 0.2738482, 0.22543967, 0.0, 0.0, 0.8987475, 0.86695606, 0.38554984, 0.35059035, 0.7306269, 1.0061588, 0.5253325, 0.0, 0.015616015, 0.31103277, 0.0, 0.30729115, 1.316688, 0.9981746, 1.5642067, 0.6483625, 0.0, 0.0, 0.0, 0.0, 0.0, 0.55289406, 0.50618815, 0.0, 0.0, 0.8601591, 0.0, 0.0, 0.0, 0.0, 0.0, 0.0, 0.0, 0.0, 0.0, 0.0], "parents": [2147483647, 0, 0, 1, 1, 2, 2, 5, 5, 6, 6, 7, 7, 8, 8, 9, 9, 10, 10, 11, 11, 13, 13, 14, 14, 16, 16, 17, 17, 18, 18, 19, 19, 20, 20, 26, 26, 27, 27, 30, 30], "right_children": [2, 4, 6, -1, -1, 8, 10, 12, 14, 16, 18, 20, -1, 22, 24, -1, 26, 28, 30, 32, 34, -1, -1, -1, -1, -1, 36, 38, -1, -1, 40, -1, -1, -1, -1, -1, -1, -1, -1, -1, -1], "split_conditions": [26.0, 32.0, 311.0, 0.02091629, -0.12869686, 245.0, 495.0, 231.0, 245254.0, 192.0, 392.0, 76.0, -0.13006528, 224.0, 299542.0, 0.05312306, 255094.0, 261781.0, 421.0, 61.0, 98.0, 0.028896201, -0.008897365, 0.20937596, 0.019409312, -0.22118431, 276322.0, 242113.0, 0.29882094, -0.2147741, 456.0, 0.007889055, -0.23095575, 0.13910119, 0.0051567717, 0.060741313, -0.11721212, 0.09613366, -0.10412986, 0.15659079, -0.012958046], "split_indices": [2, 1, 2, 0, 0, 2, 2, 2, 0, 1, 1, 1, 0, 1, 0, 0, 0, 0, 1, 1, 1, 0, 0, 0, 0, 0, 0, 0, 0, 0, 1, 0, 0, 0, 0, 0, 0, 0, 0, 0, 0], "split_type": [0, 0, 0, 0, 0, 0, 0, 0, 0, 0, 0, 0, 0, 0, 0, 0, 0, 0, 0, 0, 0, 0, 0, 0, 0, 0, 0, 0, 0, 0, 0, 0, 0, 0, 0, 0, 0, 0, 0, 0, 0], "sum_hessian": [84.64797, 2.9659717, 81.682, 1.637318, 1.3286537, 39.214382, 42.467617, 33.18808, 6.0263033, 9.957731, 32.509888, 32.16963, 1.0184507, 2.2866473, 3.739656, 2.0773838, 7.8803477, 3.9009757, 28.60891, 17.451397, 14.718233, 1.1199384, 1.1667091, 2.4533165, 1.2863395, 1.6006933, 6.2796545, 2.554379, 1.3465968, 1.0043203, 27.60459, 15.530568, 1.9208279, 3.6560574, 11.062176, 1.4421178, 4.8375363, 1.2073691, 1.3470099, 1.9970099, 25.60758], "tree_param": {"num_deleted": "0", "num_feature": "5", "num_nodes": "41", "size_leaf_vector": "1"}}, {"base_weights": [-0.0053252657, -0.013934902, 0.078794494, 0.016330654, -0.09892287, -0.015915174, 0.18541482, 0.12735508, -0.16977528, -0.036994025, 0.346026, -0.23009615, 0.41826907, -0.35952294, 0.071327835, 0.016359156, -0.3015259, 0.006346297, 0.14626047, -0.19800134, 0.082524456, 0.22530451, -0.05027058, 0.14004548, -0.6704385, 0.24804778, -0.17086224, -0.005591171, 0.13916014, -0.14197959, 0.14299622, -0.13067901, 0.14813997, -0.24526787, -0.034435935, -0.017818192, 0.11974249], "categories": [], "categories_nodes": [], "categories_segments": [], "categories_sizes": [], "default_left": [0, 0, 0, 0, 0, 0, 0, 0, 0, 0, 0, 0, 0, 0, 0, 0, 0, 0, 0, 0, 0, 0, 0, 0, 0, 0, 0, 0, 0, 0, 0, 0, 0, 0, 0, 0, 0], "id": 36, "left_children": [1, 3, -1, 5, 7, 9, -1, 11, 13, 15, 17, 19, 21, 23, 25, 27, 29, -1, -1, -1, -1, -1, -1, 31, 33, 35, -1, -1, -1, -1, -1, -1, -1, -1, -1, -1, -1], 